ketoconazole	10.315787315368652 -2.6483583450317383 -8.208386421203613 0.44922253489494324 -1.2058804035186768 -0.7116833329200745 -0.6817679405212402 2.0368003845214844 -1.1267712116241455 -4.338863372802734 -4.436001777648926 -5.304703712463379 1.2207342386245728 -2.8464159965515137 -0.9257601499557495 -4.898294925689697 0.5817135572433472 1.1301703453063965 3.446949005126953 5.247943878173828 -1.7925255298614502 -4.013254165649414 2.709282875061035 1.9894717931747437 -3.34446120262146 0.8110923171043396 3.072397232055664 -2.2799859046936035 -3.312314033508301 0.057530589401721954 -10.331501007080078 0.4531305432319641 1.3042728900909424 -2.452188014984131 3.854727268218994 3.6088547706604004 -1.660764455795288 0.4080122113227844 -0.40836232900619507 -0.71406090259552 8.670199394226074 -0.8952997922897339 -0.6979185938835144 0.8713650703430176 -3.3796675205230713 5.043070316314697 -1.583552360534668 -3.3385844230651855 1.8110911846160889 -6.8613457679748535 -0.36875560879707336 2.7217953205108643 1.024475336074829 0.7425118684768677 -2.877913475036621 0.38818490505218506 -0.9434880614280701 9.754461288452148 4.528963088989258 -7.154128074645996 -5.735665798187256 -3.918766498565674 -6.381903171539307 -1.235093116760254 -0.4033556580543518 -14.772151947021484 -5.730975151062012 1.1247588396072388 -0.5844432711601257 4.510066032409668 -2.1852786540985107 -1.0213866233825684 -5.008196830749512 -1.405031681060791 -4.5618672370910645 6.6202592849731445 -0.8159290552139282 1.2528278827667236 -0.9557469487190247 0.5095605254173279 -0.7584426403045654 7.679653167724609 1.5252739191055298 0.9138870239257812 6.826170444488525 1.5893296003341675 -1.5097384452819824 1.246666431427002 -0.650434136390686 1.4358731508255005 0.7855804562568665 -0.7720308899879456 -3.7299792766571045 -1.233575463294983 -11.504658699035645 -0.3104287385940552 -0.9647167921066284 -1.2492663860321045 -3.6609814167022705 2.03437876701355
panobinostat	8.552543640136719 -2.160600423812866 -6.644805431365967 0.6066301465034485 0.14777912199497223 0.2719377875328064 -1.2978105545043945 0.9459140300750732 0.18730056285858154 -5.666730880737305 -5.077612400054932 -6.582592010498047 0.5400518178939819 -2.583942413330078 0.7627472877502441 -6.161876678466797 -0.1479300707578659 1.3230319023132324 4.73855447769165 4.898984432220459 -5.451313495635986 -1.801068663597107 5.819612503051758 0.6194357872009277 -0.30788421630859375 -0.5999686121940613 2.4344890117645264 -0.2244109809398651 -3.4757981300354004 -0.053113535046577454 -6.1351423263549805 -0.8085921406745911 -1.2087955474853516 -1.5591745376586914 -0.6831890940666199 3.680189371109009 -3.4880623817443848 -1.8972954750061035 0.03978559374809265 0.7603424787521362 6.1381072998046875 0.2964208126068115 3.64520263671875 -0.1476595103740692 -3.0812554359436035 5.343849182128906 -1.7416882514953613 -2.997036933898926 0.7197414040565491 -6.421110153198242 -0.5571255683898926 2.880405902862549 -0.647320032119751 -1.8126955032348633 -2.4867477416992188 1.8816428184509277 -1.1320170164108276 6.742980480194092 4.455367088317871 -0.07324936985969543 -1.9446134567260742 -4.181288719177246 -3.2612109184265137 -2.2314791679382324 0.19564288854599 -11.80837631225586 -4.024201393127441 -0.14298765361309052 3.6052186489105225 4.559999942779541 -1.1353211402893066 -0.11269935965538025 -2.236604690551758 0.8069494962692261 -3.566236734390259 2.635326623916626 1.003003478050232 0.1394231766462326 0.5963491201400757 0.41960734128952026 0.8458321690559387 7.371424674987793 -1.4365055561065674 1.7455110549926758 8.479839324951172 3.6155810356140137 0.686447262763977 -0.2984631657600403 -0.8429861664772034 0.09078335762023926 1.3831076622009277 1.71635103225708 -6.417572975158691 1.2794910669326782 -9.83121395111084 0.6298840045928955 -0.7876300811767578 1.5802276134490967 -4.6190266609191895 -0.7838665843009949
moxifloxacin	7.909252166748047 -1.8611491918563843 -5.415348529815674 1.2732893228530884 -1.3484176397323608 -0.19075000286102295 -0.018774747848510742 0.19372069835662842 -0.8274486660957336 -5.231760025024414 -4.719164848327637 -8.331652641296387 1.1160917282104492 -3.0629324913024902 1.4955447912216187 -6.7766032218933105 -0.8581293821334839 1.201815128326416 5.050421714782715 4.410571575164795 -4.7011847496032715 -0.7808275818824768 5.4464111328125 0.999609649181366 -0.5085012316703796 -0.9293390512466431 3.362164258956909 -0.11959657073020935 -3.830557346343994 -0.20193178951740265 -3.727848768234253 0.021503325551748276 -1.8211853504180908 -1.4034720659255981 -0.884065568447113 2.765087842941284 -5.575271129608154 -2.611116647720337 0.12653398513793945 0.29455119371414185 6.780243873596191 0.09093271195888519 4.8859405517578125 -1.54011070728302 -2.546848773956299 5.891594409942627 -0.4638351500034332 -2.557065486907959 0.7214820384979248 -6.44058895111084 -0.8238211870193481 2.6415934562683105 -0.9331632852554321 -1.3268274068832397 -3.8151445388793945 1.297583818435669 -1.0999125242233276 4.005805969238281 6.341737747192383 -0.518811821937561 -1.1603164672851562 -5.948955059051514 -7.490838050842285 -3.143418550491333 0.058844149112701416 -15.160515785217285 -1.04840087890625 -0.044258568435907364 1.951827049255371 2.5415854454040527 -2.2665090560913086 -0.2151733934879303 -5.2897257804870605 0.8931360840797424 -3.5116915702819824 9.325149536132812 1.0428637266159058 -0.01740404963493347 1.1853846311569214 -1.4612946510314941 0.8196573853492737 4.2494049072265625 -1.3971121311187744 1.275305986404419 8.856161117553711 2.095367431640625 -0.09424781799316406 -0.21024543046951294 -0.9856312274932861 -0.06485605239868164 0.5900387763977051 1.602864146232605 -6.244606018066406 0.8151171207427979 -10.163483619689941 0.4904294013977051 -0.3577004671096802 0.6863125562667847 -2.6330485343933105 -0.8550293445587158
lomefloxacin	10.074519157409668 -6.108866214752197 -5.049647808074951 1.0604662895202637 -2.9226534366607666 -0.7677150368690491 -0.9946972131729126 1.9667048454284668 -0.7461214661598206 -5.700222969055176 -4.238056182861328 -8.002730369567871 0.46981632709503174 -0.4172438681125641 -0.9773341417312622 -5.641315460205078 -3.0268375873565674 1.6403651237487793 4.557736873626709 0.07011371850967407 -0.6670937538146973 -4.289782524108887 6.056044578552246 -0.6509695649147034 -0.6260456442832947 1.2487014532089233 4.665708065032959 -1.8094475269317627 -3.764103889465332 -0.3164149224758148 -11.579705238342285 1.3621797561645508 -0.2908223271369934 -5.975416660308838 0.6372925639152527 3.711183547973633 -2.683262348175049 -3.1210646629333496 0.10276538133621216 -0.047368645668029785 6.83439826965332 -1.3729040622711182 2.974050998687744 0.005646362900733948 -4.905455589294434 5.321491718292236 -1.0515254735946655 -0.954069197177887 1.7234405279159546 -10.471436500549316 -1.097686767578125 0.8610236644744873 -0.49924755096435547 0.4834694266319275 -3.521684169769287 1.3062347173690796 -0.8825826048851013 7.8336181640625 4.097078800201416 -7.832935810089111 -4.37026309967041 -2.675175905227661 -5.936452388763428 -4.509036064147949 -1.6999601125717163 -13.329617500305176 -6.895697593688965 1.3100013732910156 0.6198123693466187 2.560840606689453 -1.4111127853393555 -1.4149794578552246 -2.3293728828430176 -1.084525465965271 -3.063007354736328 3.368377685546875 -1.648252010345459 2.9516067504882812 -0.3637053370475769 -0.8958861827850342 0.16926926374435425 7.869418144226074 4.007766246795654 1.4605956077575684 7.204138278961182 1.865687370300293 -2.1870250701904297 0.35520902276039124 -0.9451746940612793 0.6457865238189697 0.4982486963272095 -0.17576491832733154 -5.284862518310547 -0.6612357497215271 -10.510836601257324 -0.07510006427764893 -1.0170836448669434 -1.009451150894165 -3.0865330696105957 0.39998334646224976
sucralfate	0.05598093569278717 -0.10546529293060303 -2.1808338165283203 -2.669832468032837 -0.34465253353118896 3.817678928375244 -0.6664464473724365 0.37874922156333923 1.362162709236145 -3.970909833908081 -4.7178497314453125 -2.4134676456451416 -0.3145681619644165 -0.7335161566734314 -0.4365924596786499 -2.256040573120117 -0.8459241390228271 -0.957711398601532 5.976714134216309 -0.14256076514720917 -1.8116891384124756 -0.08186691999435425 1.2401494979858398 0.5051972270011902 0.3986118733882904 -0.11005240678787231 1.9796679019927979 0.36748796701431274 -1.826746940612793 -0.9882270693778992 0.6056098341941833 -0.7005877494812012 -3.778183937072754 1.2075443267822266 -0.6326401233673096 1.897730827331543 -2.4069714546203613 0.5926005244255066 -0.7868809700012207 0.9939618110656738 1.6742140054702759 0.0358695425093174 3.6293489933013916 1.236256718635559 -0.01602707803249359 3.644562244415283 0.8473405838012695 -1.4849268198013306 0.25762832164764404 -1.6184473037719727 -1.5471868515014648 2.228151798248291 -0.9816980957984924 -1.0052452087402344 0.0457109771668911 1.6667897701263428 0.09511624276638031 9.044315338134766 7.144115447998047 -0.8403480648994446 -0.8636246919631958 -6.753681182861328 -4.858209133148193 -1.829674243927002 -0.3129987120628357 -15.38288402557373 -2.0448386669158936 -0.13880124688148499 3.4207592010498047 2.64363431930542 -1.422067403793335 0.9224686622619629 -5.2825188636779785 0.7342394590377808 -1.8841310739517212 5.682623863220215 0.15890717506408691 1.6187188625335693 0.6300278306007385 -1.9088194370269775 0.6967893838882446 5.496599197387695 1.2422765493392944 -0.0688977986574173 14.552912712097168 3.680882215499878 -0.5577750205993652 -1.2761669158935547 -0.3478934168815613 1.2221076488494873 -0.09198550879955292 1.0070232152938843 -1.9025343656539917 0.8223304748535156 -7.58725118637085 1.4568183422088623 0.8323622345924377 1.9359898567199707 -4.406983852386475 0.9081255197525024
erythromycin	4.341881275177002 -1.5046257972717285 -1.3545373678207397 -1.5489451885223389 0.22066496312618256 4.546391487121582 -0.3370833396911621 0.7849384546279907 1.1178839206695557 -6.156521797180176 -8.357006072998047 -2.293079376220703 0.44060808420181274 -1.983961820602417 0.9813889265060425 -2.856628656387329 -1.9402720928192139 0.19268764555454254 4.856411933898926 4.388871669769287 -3.7082936763763428 -0.7863447666168213 3.5359139442443848 -0.13709108531475067 -0.02444058656692505 -0.422239750623703 2.1933071613311768 0.3125622570514679 -2.5351388454437256 -0.5157581567764282 -4.658186435699463 -0.8894819021224976 -2.622875452041626 1.0259604454040527 -0.9765307903289795 2.7353596687316895 -2.6523702144622803 -2.852003574371338 -0.1259896457195282 0.28302788734436035 1.1761902570724487 0.09444579482078552 5.91658353805542 1.0139484405517578 -2.331817626953125 5.155844211578369 -1.687195897102356 0.7167174220085144 0.3124028742313385 -3.572958469390869 -1.6712672710418701 2.201892852783203 -0.9378953576087952 -0.6062520742416382 -2.8857457637786865 1.258020043373108 -0.6813220977783203 3.0617122650146484 7.515083312988281 -2.0356106758117676 -0.5024852752685547 -11.550731658935547 -7.390987396240234 -4.207005023956299 -0.7381577491760254 -14.494071960449219 -6.421295166015625 0.8097510933876038 0.9044885635375977 2.1875832080841064 -1.8938542604446411 -0.8659247159957886 -8.301137924194336 -1.063328742980957 -4.665151119232178 12.372780799865723 -0.8684086799621582 2.265507221221924 -0.624011218547821 -0.6179395914077759 0.7609925270080566 3.6388988494873047 1.7301121950149536 0.9344260692596436 6.989650249481201 1.840764045715332 -1.076677680015564 0.7383825182914734 -0.2781553268432617 0.6386101245880127 0.7623578906059265 -0.18548086285591125 -6.068668365478516 -0.3765503466129303 -10.174993515014648 0.25899481773376465 -0.6832302212715149 0.4118196368217468 -2.2065868377685547 2.0814950466156006
itraconazole	9.919748306274414 -3.806631088256836 -8.025954246520996 0.5435106158256531 -0.9656673669815063 -0.7262418270111084 -0.6943021416664124 2.4143664836883545 -1.0953094959259033 -4.504481315612793 -4.99759578704834 -5.251765251159668 1.8078300952911377 -3.660088300704956 -0.9198948740959167 -5.229811668395996 0.39520370960235596 1.1423262357711792 3.3649556636810303 5.851180076599121 -2.970050573348999 -4.24346923828125 4.358551025390625 1.9567503929138184 -3.9653944969177246 0.8143653273582458 3.8783812522888184 -2.212653636932373 -3.3020830154418945 0.05852299556136131 -11.349751472473145 0.40130722522735596 1.3004326820373535 -3.4137539863586426 3.68058443069458 4.189294815063477 -2.149580478668213 -0.3407859802246094 -0.33660534024238586 -0.717470645904541 7.6365766525268555 -1.318064570426941 -0.7661905288696289 0.8878166675567627 -4.86211633682251 4.938991546630859 -0.9501299858093262 -3.2006020545959473 1.782623291015625 -7.435917854309082 -0.8551225066184998 2.2339015007019043 -0.5838810801506042 1.5289870500564575 -3.6668241024017334 0.41141679883003235 -0.7954749464988708 9.029393196105957 4.207977771759033 -8.326399803161621 -9.14242172241211 -6.8782639503479 -7.448461055755615 -4.736716270446777 -1.0119493007659912 -16.156688690185547 -6.352232456207275 1.8074750900268555 0.6824243068695068 3.1919102668762207 -1.7203105688095093 -1.8881574869155884 -7.942549228668213 -1.0915946960449219 -4.103665351867676 9.526045799255371 -1.4725456237792969 2.3171491622924805 -0.8433104157447815 -0.5712703466415405 -1.6624338626861572 7.936672687530518 3.636829376220703 1.2166327238082886 7.850306034088135 1.002000331878662 -1.745714783668518 1.3872004747390747 -0.9683117270469666 0.9190373420715332 0.6204582452774048 -0.5109668374061584 -6.346868991851807 -1.715904951095581 -13.023892402648926 0.09762509167194366 -1.11215078830719 -0.4732792377471924 -3.8309314250946045 2.0389115810394287
ticlopidine	5.635416030883789 -3.387028217315674 -6.881422519683838 1.0766756534576416 -0.19847805798053741 -0.33960744738578796 -0.6806987524032593 3.3858864307403564 -0.4996219873428345 -3.5147860050201416 -2.3465685844421387 -6.124695777893066 2.15583872795105 0.18069308996200562 -0.21763187646865845 -4.571875095367432 -0.644951343536377 1.9729671478271484 1.2662949562072754 5.238711833953857 -2.9531540870666504 -2.0964910984039307 5.329936981201172 -0.8829993605613708 -0.5362969636917114 0.3550761938095093 4.213239669799805 -1.3577675819396973 -2.990734100341797 1.0419461727142334 -5.191381454467773 -0.7133908271789551 -0.5529153943061829 -7.625249862670898 1.966187596321106 3.970139980316162 -3.083625316619873 -2.538020133972168 0.499537855386734 0.15559369325637817 7.674478530883789 -0.4720982611179352 0.7394794821739197 0.5889945030212402 -3.7656850814819336 3.8719534873962402 -0.47412624955177307 -1.8171501159667969 3.112928867340088 -3.5524075031280518 -1.2872815132141113 1.7317259311676025 -0.8814774751663208 -0.36490094661712646 0.4385576844215393 0.7915109395980835 0.8964994549751282 5.361639022827148 2.0155487060546875 -3.1682698726654053 -1.692480444908142 -2.195136785507202 -7.053147315979004 -4.309559345245361 0.5211077928543091 -11.168124198913574 -1.4901456832885742 0.520994246006012 0.8438774347305298 1.2951719760894775 -2.1416163444519043 -0.9987504482269287 -1.7562994956970215 -1.073500156402588 -2.5266051292419434 3.9299139976501465 -1.5603668689727783 2.066080093383789 0.05797777324914932 -1.4241517782211304 1.3793392181396484 3.2437949180603027 2.956847906112671 1.127434253692627 3.7699458599090576 0.524919867515564 -1.2082473039627075 -0.5267285108566284 0.7290084362030029 -0.2773028612136841 -1.089613676071167 1.2610840797424316 -6.757961273193359 0.7611969113349915 -7.939717769622803 2.5033249855041504 1.1272916793823242 1.2226927280426025 -3.0255868434906006 -0.24833065271377563
ketamine	3.9434142112731934 -0.20371578633785248 -5.250820159912109 0.37643536925315857 -0.8095531463623047 0.25518015027046204 -0.7095754146575928 4.600484848022461 -1.8831183910369873 -3.093569278717041 -1.7378629446029663 -5.304269790649414 0.041175246238708496 -1.0810433626174927 -0.34173595905303955 -3.29176926612854 0.8436196446418762 1.1633738279342651 1.3592214584350586 4.10455846786499 -0.43882572650909424 0.13235154747962952 -0.039643749594688416 -0.24453464150428772 0.354075163602829 -0.7510032057762146 1.9529433250427246 -1.2820484638214111 -2.078749418258667 -0.1856812983751297 -3.614121437072754 0.6992080211639404 0.9714611768722534 -4.937027454376221 2.4178507328033447 1.5919297933578491 -1.2546089887619019 0.8113746047019958 -0.38557636737823486 0.8331539630889893 6.422804355621338 0.31437790393829346 -0.08261469006538391 2.0785109996795654 -0.489372193813324 4.04964542388916 0.2467486560344696 -0.13183367252349854 2.4490787982940674 -1.0343902111053467 -1.0334376096725464 -0.07723793387413025 -0.5613720417022705 0.019094932824373245 -2.4997544288635254 0.37901321053504944 0.9676330089569092 8.081974983215332 3.3832895755767822 -5.132685661315918 -1.709593415260315 -1.6285231113433838 -8.349638938903809 -3.9380478858947754 -1.729151725769043 -12.281628608703613 -1.81599760055542 1.3207427263259888 0.7399883270263672 4.4739089012146 -1.528244137763977 -1.4258273839950562 -2.5153560638427734 -0.9873999357223511 -3.5223288536071777 5.486303329467773 -1.6554338932037354 3.2777280807495117 -0.016408972442150116 -1.0746214389801025 -1.916298270225525 3.1027214527130127 4.103221893310547 1.3270790576934814 4.990771293640137 1.067138910293579 -1.8974735736846924 -0.03368276357650757 -1.059394359588623 0.4352108836174011 -1.185444951057434 0.7597001791000366 -4.935863494873047 0.6469696164131165 -9.407358169555664 2.4867446422576904 -0.48551976680755615 -0.10843366384506226 -3.8626880645751953 -0.2071952223777771
warfarin	5.587368011474609 -3.5707454681396484 -6.533531188964844 1.5850650072097778 -0.4923415780067444 -0.7302449941635132 -0.6696447134017944 3.957641839981079 -1.0810712575912476 -3.404237747192383 -2.6420958042144775 -7.5788397789001465 2.6267213821411133 -4.54399299621582 1.699467658996582 -4.479066371917725 0.4141703248023987 3.1331944465637207 1.3764903545379639 6.295721530914307 -4.487094879150391 -1.7612206935882568 6.047268867492676 0.07072779536247253 -1.4023160934448242 0.6792569756507874 4.39638090133667 -2.173816680908203 -2.719951868057251 1.6859805583953857 -4.150357723236084 -0.8105711936950684 -0.5113939046859741 -5.205498695373535 3.4016313552856445 4.567582130432129 -3.8971853256225586 -1.4242420196533203 0.4267200827598572 2.1060845851898193 6.9252095222473145 -1.5353457927703857 -0.19968056678771973 0.693973183631897 -5.054685115814209 4.181750297546387 -0.42060309648513794 -3.4924747943878174 4.323493957519531 -4.023778438568115 -0.37325263023376465 3.2200653553009033 1.0170388221740723 -0.10179095715284348 -2.6127231121063232 0.45078474283218384 -0.9285327196121216 8.387690544128418 3.244058609008789 -5.758787155151367 -3.4784698486328125 -2.731393575668335 -5.100694179534912 -1.3867286443710327 -0.4428447186946869 -12.680243492126465 -7.520585060119629 1.337389349937439 -0.6110658049583435 4.957843780517578 -2.1078715324401855 -1.0596158504486084 -1.6768001317977905 -1.4027923345565796 -5.133249282836914 3.3182711601257324 -0.8348345756530762 1.220982313156128 -0.9599961042404175 0.419918417930603 -0.7224574089050293 6.067718029022217 1.5506013631820679 0.9097018241882324 5.959255218505859 0.3233775496482849 -1.756859302520752 1.2264480590820312 -0.595024585723877 2.228637933731079 0.6371154189109802 -0.6694386601448059 -3.7993197441101074 -1.1857354640960693 -10.764437675476074 -0.16030168533325195 -0.9304697513580322 -1.045639157295227 -3.673272132873535 2.6638216972351074
citalopram	5.4486083984375 -3.773017406463623 -7.07932186126709 1.1101343631744385 -1.7857539653778076 -0.7576321363449097 -0.6739779710769653 2.350595712661743 -1.1583905220031738 -3.318352699279785 -3.4343554973602295 -6.4743218421936035 1.1866029500961304 -1.4144691228866577 -0.9234215021133423 -4.608101844787598 0.02161991596221924 1.075141191482544 2.742554187774658 2.134321689605713 -0.8707654476165771 -1.618620753288269 3.299820899963379 0.0341649055480957 -1.1177594661712646 0.7972208857536316 3.3063511848449707 -2.251241445541382 -2.528407096862793 0.029852256178855896 -9.19556999206543 0.44095879793167114 1.3912184238433838 -9.7561674118042 2.1448111534118652 4.086241245269775 -2.1827683448791504 -0.8687945604324341 -0.38881880044937134 -0.8435634970664978 7.893230438232422 -0.4408379793167114 0.4471611976623535 0.8585854172706604 -3.9163553714752197 4.361950874328613 -0.2873556613922119 -0.5430970788002014 1.4039185047149658 -5.518351078033447 -0.3552840054035187 -0.6952253580093384 0.5953254103660583 0.744218111038208 -3.195073127746582 -0.19188016653060913 0.9258503317832947 9.575613975524902 4.6884894371032715 -9.167590141296387 -4.827817916870117 -2.797271728515625 -8.580912590026855 -4.108577728271484 -0.16755753755569458 -13.79130744934082 -6.851715087890625 1.895824670791626 -0.6293138265609741 4.28701114654541 -1.637265682220459 -2.2602624893188477 -3.1336612701416016 -0.7479475736618042 -4.766533374786377 5.854923725128174 -0.9425709843635559 2.7031614780426025 -0.8384913802146912 -0.042425841093063354 -2.4018266201019287 6.8128743171691895 2.8364477157592773 0.7504563927650452 7.4243574142456055 2.0303611755371094 -1.9050849676132202 -0.2608729600906372 -0.5137817859649658 1.0199406147003174 -1.1394823789596558 0.642296552658081 -5.882570266723633 0.018231570720672607 -12.030439376831055 0.9494612216949463 -1.4676405191421509 0.1083419919013977 -4.058804988861084 -0.5173916816711426
fluoxetine	6.552345275878906 -3.2604873180389404 -4.72852897644043 1.3141578435897827 -1.6421077251434326 -0.7403675317764282 -0.669793963432312 3.792419195175171 -1.170333981513977 -3.1215577125549316 -2.4640519618988037 -7.517187595367432 1.1414527893066406 -2.8044850826263428 -0.8988265991210938 -4.1026129722595215 0.40265119075775146 1.1184320449829102 2.017407178878784 4.1226396560668945 -1.835746169090271 -1.5976401567459106 4.645090579986572 -0.7294092178344727 -0.8124226331710815 0.7575839757919312 3.122009515762329 -2.8711318969726562 -2.9660162925720215 0.03636331856250763 -7.613030910491943 0.4092559218406677 1.4007118940353394 -9.021411895751953 2.9119486808776855 4.151404857635498 -2.0820465087890625 -1.0636907815933228 -0.4247151017189026 -0.808796763420105 6.919220924377441 -0.4003869891166687 -0.11294722557067871 0.8827922940254211 -4.859963893890381 3.8811230659484863 -1.0197837352752686 -0.1543007493019104 2.156540870666504 -6.2000274658203125 -1.2680948972702026 -0.9387780427932739 -0.7577366828918457 0.8596450686454773 -2.6403276920318604 0.8374895453453064 0.9806246757507324 7.837133884429932 3.2421600818634033 -7.4038567543029785 -4.542760848999023 -2.979815721511841 -8.212952613830566 -4.234625816345215 -1.8326034545898438 -12.125293731689453 -5.265466690063477 1.0236386060714722 0.8263193368911743 3.0671892166137695 -1.4967668056488037 -2.3706648349761963 -3.508563756942749 -0.9705482125282288 -4.026719570159912 5.370167255401611 -2.0130481719970703 2.6085150241851807 -0.36233630776405334 -1.1084132194519043 -0.44087451696395874 5.367501258850098 3.917442560195923 1.3223925828933716 6.060429573059082 2.2280235290527344 -3.2192764282226562 -0.25345391035079956 -1.0504614114761353 0.07121214270591736 -1.1882262229919434 0.6672191619873047 -5.403487205505371 0.44421619176864624 -10.560911178588867 2.0018839836120605 -1.1521525382995605 0.565024733543396 -3.775146245956421 -0.49056553840637207
paroxetine	7.538491249084473 -2.7126963138580322 -8.290685653686523 2.219074249267578 -1.3968242406845093 -0.7493228316307068 -0.7129279971122742 1.9572397470474243 -1.0542585849761963 -4.28897762298584 -4.581515789031982 -6.387820243835449 -0.057741761207580566 -4.301656246185303 -0.9240893125534058 -5.553564548492432 -0.3045944571495056 1.1582021713256836 3.9354496002197266 7.188085556030273 -3.536098003387451 -2.6007447242736816 5.975139141082764 1.2235758304595947 -1.5813133716583252 0.813352644443512 4.089964866638184 -2.3573415279388428 -3.49483323097229 0.03981237858533859 -5.667552947998047 0.381114661693573 1.19879150390625 -2.4648897647857666 2.9385030269622803 4.698995113372803 -2.8427231311798096 -2.1148269176483154 -0.23706866800785065 -0.8364940881729126 6.8146491050720215 -0.9633561968803406 1.5161843299865723 0.8888841271400452 -4.4137749671936035 6.656435012817383 -1.648576259613037 -0.9977978467941284 1.8444641828536987 -4.930809020996094 0.9150688052177429 0.7925950288772583 0.3286246955394745 1.052869439125061 -1.5826256275177002 0.823926568031311 -0.8369021415710449 4.781042098999023 3.040633201599121 -7.2510786056518555 -5.9717936515808105 -8.642301559448242 -7.589504718780518 -4.613234996795654 0.25201159715652466 -11.63080883026123 -5.925283432006836 1.0651112794876099 0.4644142985343933 2.319361925125122 -0.0704738050699234 -0.5144003629684448 -7.844449043273926 -0.2547910809516907 -0.7546859383583069 11.1881103515625 -1.1485170125961304 1.8216733932495117 0.25443416833877563 -0.6924727559089661 -0.5335239768028259 3.8327834606170654 0.06652561575174332 1.781484603881836 6.064737796783447 0.17862766981124878 -1.0016553401947021 -0.11796887218952179 -0.7038788199424744 -0.5788840055465698 -0.18536821007728577 -1.2586692571640015 0.1201411560177803 0.5603722333908081 -10.118443489074707 1.7134077548980713 0.9070360660552979 -2.415280342102051 -4.511013507843018 -0.9971821308135986
mirtazapine	5.987382411956787 -2.465928316116333 -7.000510215759277 1.8366936445236206 -1.145125150680542 -0.7552087903022766 -0.7014428377151489 4.257803916931152 -1.1924313306808472 -2.667541027069092 -2.8875246047973633 -7.656506061553955 0.21060144901275635 -3.515519618988037 -0.8984949588775635 -4.432695388793945 0.18011099100112915 1.1260889768600464 1.7597566843032837 6.875650405883789 -1.761910319328308 -1.8938305377960205 7.2324981689453125 0.12629160284996033 -0.370500385761261 0.7496440410614014 3.5677318572998047 -3.163804769515991 -2.2276575565338135 0.029606938362121582 -7.053765296936035 0.6497217416763306 1.306559443473816 -10.20430850982666 2.8159890174865723 4.1348958015441895 -1.8866000175476074 -1.4316737651824951 -0.46813538670539856 -0.7844706773757935 9.324376106262207 0.021250173449516296 -0.11965364217758179 0.8810304403305054 -4.140027046203613 5.319477081298828 -1.104515790939331 0.07992935180664062 2.446890354156494 -4.305395126342773 -0.6955555081367493 -0.4488148093223572 0.3106604516506195 0.6235073804855347 -3.80721378326416 1.076633334159851 0.9569808840751648 7.383370399475098 2.9297194480895996 -9.127522468566895 -5.583241939544678 -3.0554065704345703 -10.112594604492188 -5.9459991455078125 -1.8438960313796997 -13.578834533691406 -2.0621566772460938 1.7298310995101929 -0.3099375367164612 2.7758002281188965 -1.4643800258636475 -1.4056023359298706 -3.8144233226776123 -0.4126186966896057 -3.201026439666748 6.312014579772949 -1.2405674457550049 3.8620855808258057 -0.9052919745445251 -0.5524951219558716 -2.588013172149658 4.852738857269287 5.291310787200928 1.447401523590088 6.069982051849365 2.402491331100464 -1.9833104610443115 -0.6556631326675415 -0.8244217038154602 0.5028266906738281 -1.2040934562683105 0.2406192421913147 -6.38082218170166 0.4813883602619171 -10.597262382507324 1.7034132480621338 -0.6639994382858276 -1.3813707828521729 -3.013784408569336 -0.4996930956840515
amitriptyline	7.72580623626709 -3.021782159805298 -8.739060401916504 0.7908420562744141 -1.4367432594299316 -0.6158105134963989 -0.972024142742157 4.900492191314697 -1.1727575063705444 -3.8535313606262207 -3.112374782562256 -7.68353271484375 0.329739511013031 -4.4314799308776855 -0.9859097003936768 -4.196115016937256 -0.3608640432357788 1.7884248495101929 2.3738131523132324 5.509657859802246 -5.274757385253906 -4.4247145652771 8.96665096282959 0.6242988705635071 -1.3015754222869873 1.3302240371704102 3.6523971557617188 -2.8503034114837646 -1.8113235235214233 -0.38758009672164917 -9.235307693481445 0.9389622807502747 -0.06603598594665527 -4.663984298706055 2.8527727127075195 4.203059196472168 -1.5773224830627441 -1.470068097114563 -0.3418317437171936 0.1680203080177307 9.17552375793457 -1.5193307399749756 -0.5626649856567383 0.15685631334781647 -5.862948894500732 5.392062187194824 -2.2000560760498047 -2.0171003341674805 4.1342573165893555 -5.146798610687256 -0.4622049331665039 -0.9971967935562134 1.7717900276184082 -0.4637864828109741 -3.313856601715088 -0.11076021194458008 0.89405357837677 6.909730434417725 2.940342664718628 -10.201218605041504 -1.8749459981918335 -1.4131814241409302 -6.353505611419678 -4.545290946960449 0.0011071935296058655 -12.351933479309082 -7.733455657958984 1.487136960029602 -0.8031543493270874 3.0635156631469727 -1.479936957359314 -2.18105411529541 -1.1102710962295532 -0.7198992371559143 -4.360095977783203 2.6678149700164795 -0.9595346450805664 3.0342001914978027 -0.8613737225532532 -0.15965282917022705 -1.2147061824798584 5.1285271644592285 3.1112563610076904 0.6861523985862732 6.114688873291016 1.5716503858566284 0.6140547394752502 -0.20636484026908875 -0.3590049743652344 1.3940407037734985 -1.3066504001617432 0.7725159525871277 -8.473553657531738 0.5083168745040894 -9.454330444335938 0.8376908302307129 -1.9976340532302856 0.12732768058776855 -3.6997578144073486 -0.45782801508903503
tranylcypromine	4.072352886199951 -1.8074557781219482 -3.7941179275512695 1.3571252822875977 -0.7909732460975647 -0.6670123338699341 -0.5616384744644165 3.6990036964416504 -1.0664712190628052 -2.430541515350342 -1.3995234966278076 -5.180571556091309 0.534451961517334 -2.6959967613220215 -0.8859996795654297 -2.6587517261505127 0.332999587059021 1.118615984916687 1.139925241470337 5.012330055236816 -1.5556726455688477 0.6511250734329224 3.8644614219665527 -1.3547453880310059 0.9866967797279358 0.7157020568847656 2.8557724952697754 -2.955124616622925 -2.1918857097625732 0.03785108029842377 -4.032623767852783 0.4103779196739197 1.460524082183838 -6.655944347381592 2.5288140773773193 3.244819402694702 -2.25764536857605 -0.6738027334213257 -0.1428588181734085 -0.7388626933097839 4.837062835693359 -0.1389770209789276 -0.6822678446769714 0.8723326921463013 -3.393383502960205 3.240182638168335 -0.08517450094223022 0.5910251140594482 1.8806424140930176 -1.103243112564087 -0.7384613752365112 -0.11604246497154236 -0.3259834051132202 0.29078248143196106 -2.751194477081299 0.9263321757316589 -0.9491360783576965 5.618175029754639 1.640725016593933 -5.326770782470703 -3.208808422088623 -1.9118223190307617 -7.901683807373047 -4.922756195068359 -2.490832567214966 -9.07715892791748 0.90370774269104 0.8286962509155273 -0.6020306348800659 3.1583127975463867 -1.1197667121887207 -0.7209149599075317 -2.11374831199646 -0.38845962285995483 -2.3078243732452393 4.7372236251831055 -1.546342134475708 2.83396315574646 -1.0303834676742554 -0.08488664031028748 -1.5536589622497559 1.8613406419754028 5.491621017456055 2.272116184234619 4.003262042999268 1.4097237586975098 -1.6911883354187012 1.3394336700439453 -1.1046664714813232 0.6554570198059082 -0.7940698862075806 -0.9175668358802795 -5.389897346496582 0.8670636415481567 -7.175060749053955 2.5433149337768555 -0.15174885094165802 -2.413022518157959 -3.5374886989593506 -1.0081048011779785
sulfaphenazole	6.679020881652832 -2.719480037689209 -6.980442523956299 1.912459135055542 -1.0523324012756348 -0.7121694087982178 -0.6466282606124878 4.253598213195801 -1.1545321941375732 -2.933225631713867 -2.1787891387939453 -7.458988189697266 1.029247522354126 -3.595731496810913 -0.8914039731025696 -4.103663921356201 0.6221855282783508 1.127894401550293 1.3418831825256348 6.7272725105285645 -2.0880863666534424 -1.563241720199585 7.947301387786865 0.04487890005111694 0.11854654550552368 0.7410459518432617 2.8154871463775635 -3.0040793418884277 -2.766118049621582 0.03566548600792885 -5.750082492828369 0.4727714955806732 1.3836634159088135 -8.514534950256348 2.9913954734802246 4.9023966789245605 -1.94598388671875 -0.7331608533859253 -0.39301228523254395 -0.7756291627883911 6.870670318603516 -0.33356422185897827 -0.9379719495773315 0.8878767490386963 -4.644314289093018 4.406593322753906 -1.1913005113601685 0.3135547339916229 2.090657949447632 -4.745411396026611 -0.7010871767997742 0.15163147449493408 0.06270115077495575 0.9329309463500977 -2.95698618888855 0.7715709805488586 -0.8999806642532349 6.272393703460693 1.8541576862335205 -8.062796592712402 -8.004036903381348 -4.566252708435059 -5.888430118560791 -4.6141815185546875 -1.5578105449676514 -11.295694351196289 -6.468642711639404 0.816687822341919 -0.7609158754348755 2.448701858520508 -1.2500590085983276 -1.0213497877120972 -3.8941872119903564 -0.4481978118419647 -1.9362515211105347 3.601698637008667 -1.039554476737976 1.6806979179382324 -1.012247085571289 -0.24247930943965912 -1.7190688848495483 5.916562557220459 2.32171630859375 1.799940824508667 6.63454008102417 0.11856281757354736 -1.770697832107544 1.136631965637207 -1.0601996183395386 1.9879634380340576 -0.773017168045044 -1.1930757761001587 -5.9396562576293945 0.8247206211090088 -9.717144012451172 2.043337106704712 0.003165941685438156 -2.7610034942626953 -4.773739814758301 -1.002551794052124
quinidine	9.429577827453613 -4.002083778381348 -8.148868560791016 1.1350170373916626 -1.0557057857513428 -0.7364944219589233 -0.7764239311218262 3.601344585418701 -1.0868239402770996 -4.175725936889648 -4.786911487579346 -6.751660346984863 1.2657266855239868 -4.615771293640137 -0.9202758073806763 -5.409544467926025 0.5948347449302673 1.2279136180877686 3.4587788581848145 8.21383285522461 -4.352080821990967 -4.366034984588623 9.084551811218262 1.5551540851593018 -3.0537149906158447 0.80760657787323 3.663550853729248 -2.782921075820923 -3.263519763946533 0.05093003064393997 -9.987261772155762 0.4483528733253479 1.3141813278198242 -2.4586405754089355 3.5694026947021484 5.923011302947998 -1.9302797317504883 -1.2313696146011353 -0.39437034726142883 -0.7223864793777466 6.651167869567871 -0.7676281332969666 -0.5799437761306763 0.8859270215034485 -6.779025077819824 6.265726089477539 -2.168891429901123 -1.8847473859786987 2.6651101112365723 -7.222976207733154 -0.6253483295440674 2.4201502799987793 -0.9471220970153809 1.0875744819641113 -4.179949760437012 1.4106858968734741 -1.043594241142273 2.924539566040039 7.899203777313232 -2.0200061798095703 -3.1340551376342773 -10.966426849365234 -10.305986404418945 -3.641369342803955 0.11150342226028442 -14.452046394348145 -2.250615358352661 -0.1630222052335739 2.0286166667938232 2.529923915863037 -2.483506917953491 -0.4692156910896301 -10.62596321105957 0.9413322806358337 -2.958395481109619 14.772025108337402 1.0555024147033691 -0.19820770621299744 1.1421676874160767 -1.3014936447143555 0.46728935837745667 3.4872889518737793 -1.5007002353668213 1.2662328481674194 8.414400100708008 2.4057023525238037 0.26105836033821106 -0.20661908388137817 -1.2328617572784424 -0.05590260028839111 0.8719684481620789 1.3018488883972168 -7.133826732635498 0.3205886781215668 -11.79033374786377 0.2199389785528183 -1.6719138622283936 0.3334925174713135 -2.7170400619506836 -1.0606319904327393
propofol	5.6378173828125 -2.725987434387207 -4.899139404296875 0.7807874083518982 -1.3793801069259644 -0.04004037380218506 -1.1312750577926636 2.1394200325012207 -0.2933051288127899 -4.283224582672119 -3.921173095703125 -4.508785247802734 0.1246902346611023 -2.821439027786255 -0.090171217918396 -5.245430946350098 -1.1747640371322632 1.033367395401001 3.8321175575256348 5.106688499450684 -3.69065260887146 -1.159938097000122 4.867739677429199 0.7144638895988464 -0.2062457799911499 -0.3028305768966675 2.940402030944824 -0.587588906288147 -3.5926320552825928 -0.09675288945436478 -5.445476055145264 0.7126907110214233 0.35647082328796387 -2.552748441696167 1.5890073776245117 3.5332376956939697 -3.1461451053619385 -1.8995344638824463 0.1296321302652359 0.06708276271820068 5.386414527893066 0.08772432804107666 2.402841091156006 0.3260115385055542 -2.942992925643921 4.505331516265869 -0.9448164105415344 -0.22945114970207214 1.4628533124923706 -3.7714896202087402 -0.4029645025730133 2.4855055809020996 1.1035029888153076 -1.5600464344024658 -2.8758556842803955 0.14311516284942627 -0.8593865633010864 7.091892242431641 3.0420217514038086 -3.551968812942505 -0.6744282841682434 -0.4551776647567749 -4.492248058319092 -3.466641426086426 -0.3586779236793518 -10.221199035644531 -4.936994552612305 1.7107675075531006 -0.39176446199417114 4.610260009765625 -1.5434004068374634 -1.3908189535140991 -0.37586382031440735 -1.2624773979187012 -5.656313896179199 2.229546546936035 -0.9289994239807129 3.032207489013672 -0.962409496307373 -0.14336614310741425 -0.5777902603149414 4.022271633148193 3.487226724624634 0.9111148715019226 5.147254467010498 -0.46562477946281433 -1.5303765535354614 1.1622575521469116 -0.34732407331466675 1.8910620212554932 -0.1180654764175415 0.6836769580841064 -5.45478630065918 -0.9862378835678101 -8.947754859924316 0.49068784713745117 -0.9575598835945129 0.3491039276123047 -3.1985111236572266 3.031877279281616
tamoxifen	8.946481704711914 -3.6905875205993652 -7.034914970397949 1.7177120447158813 -1.2482850551605225 -0.7330960631370544 -0.680712103843689 4.328471660614014 -1.1221635341644287 -3.6748640537261963 -2.8368208408355713 -6.7758259773254395 1.2007534503936768 -4.881265163421631 -0.896787166595459 -4.509368896484375 0.7643489837646484 1.119057297706604 2.080977201461792 7.369799613952637 -3.877664089202881 -2.874779224395752 8.349059104919434 1.3999130725860596 -1.4969143867492676 0.7688565850257874 3.3371901512145996 -2.8736205101013184 -3.3859071731567383 0.0362466461956501 -7.759452819824219 0.4599732756614685 1.3638404607772827 -7.189761638641357 3.264200210571289 5.194239616394043 -2.004094362258911 -0.3711947202682495 -0.3621297776699066 -0.7748832106590271 7.663178443908691 -0.6550438404083252 -1.3058812618255615 0.8891500234603882 -6.0172438621521 4.330318927764893 -0.9603749513626099 -0.25697243213653564 2.0898807048797607 -4.746821880340576 -1.0546324253082275 2.4902591705322266 0.1562572419643402 0.787995457649231 -1.408100962638855 1.4582345485687256 -0.6685305237770081 5.702583312988281 1.532679796218872 -3.4419264793395996 -3.837858200073242 -4.25596809387207 -5.31309700012207 -3.3305959701538086 -1.2165864706039429 -10.387141227722168 -7.3639702796936035 -0.7825835943222046 0.7868320941925049 4.092535972595215 -0.3035409152507782 -0.8524399995803833 -2.7170090675354004 -1.1771036386489868 -3.107940435409546 5.278057098388672 -0.8304281234741211 2.561110496520996 -0.8971738219261169 0.8514121174812317 1.5384902954101562 5.658753395080566 1.7163195610046387 1.9215612411499023 3.9781436920166016 1.5821466445922852 -0.9112269878387451 1.904120922088623 -0.8299348950386047 1.7727316617965698 1.4553711414337158 -0.10432353615760803 -4.373259544372559 -1.1388838291168213 -10.269335746765137 0.24620015919208527 -1.258019208908081 0.2608323097229004 -3.1700384616851807 2.3421177864074707
anastrozole	6.749034404754639 -6.567098140716553 -6.360144138336182 0.766819179058075 -0.2540636956691742 3.2359960079193115 -0.8475556969642639 0.9158374667167664 -0.7787428498268127 -5.397045612335205 -4.782307147979736 -3.5465667247772217 1.7715046405792236 -0.029847025871276855 -0.9091869592666626 -6.897413730621338 -0.9068448543548584 0.33830875158309937 5.311249256134033 5.9190754890441895 -2.309417724609375 -2.0032951831817627 2.235546827316284 0.34451112151145935 -1.5121922492980957 -0.09512466192245483 2.767758846282959 -1.1543387174606323 -4.033717155456543 0.12289443612098694 -13.619254112243652 0.21651118993759155 -1.754894733428955 -7.032947063446045 0.0006731748580932617 4.178748607635498 -2.972691535949707 -0.47858622670173645 -0.7643887400627136 0.0968245267868042 7.23936653137207 0.42696550488471985 5.385978698730469 3.2478060722351074 -4.092634677886963 6.2792649269104 -0.5176454186439514 0.29246532917022705 0.007481813430786133 -8.554794311523438 -0.40987512469291687 2.9021811485290527 1.2870159149169922 0.10960393399000168 -3.4182493686676025 0.2142844796180725 -0.9459102153778076 8.285516738891602 2.8121249675750732 -5.716087341308594 -4.05324125289917 -1.6316792964935303 -5.264945983886719 -4.211307525634766 -0.28458085656166077 -11.550525665283203 -6.137304782867432 1.28062105178833 -0.5414505004882812 3.710294723510742 -1.525679111480713 -1.742353916168213 -0.7915699481964111 -1.316467523574829 -5.100375652313232 2.531291961669922 -0.8859953284263611 2.510890007019043 -0.9576529860496521 0.33358150720596313 -0.5077449083328247 8.589509963989258 2.1603212356567383 0.9232744574546814 6.781347751617432 0.45474496483802795 -1.577925443649292 1.2405421733856201 -0.6178841590881348 1.477750301361084 0.2926093339920044 -0.26882994174957275 -6.018251895904541 -1.2766470909118652 -10.433237075805664 0.045630719512701035 -1.301690697669983 -0.6162112355232239 -3.5611393451690674 2.4365785121917725
amphetamine	4.681235313415527 -2.9967942237854004 -5.106271743774414 0.9071011543273926 -1.4127565622329712 -0.7310460209846497 -0.674858570098877 3.8182179927825928 -1.1245551109313965 -3.0760977268218994 -2.4233081340789795 -4.271742343902588 1.1676316261291504 -3.119072675704956 -0.9002977013587952 -3.623037815093994 0.6983577609062195 1.1077247858047485 1.884446382522583 5.765878677368164 -2.677396774291992 -1.3455536365509033 4.435416221618652 0.4456273913383484 -1.0855324268341064 0.7666840553283691 2.8052289485931396 -2.7243709564208984 -2.7680916786193848 0.03733624517917633 -5.871829509735107 0.28258442878723145 1.3813631534576416 -3.974490165710449 3.048452377319336 4.1353678703308105 -1.926011562347412 -0.7110316157341003 -0.41803666949272156 -0.7901437282562256 4.591380596160889 -0.584036648273468 -0.8708432912826538 0.8853549361228943 -5.05748987197876 3.645857095718384 -1.2083981037139893 -0.04410737752914429 2.130746603012085 -2.6742804050445557 -0.2594039738178253 1.647883653640747 0.8608027696609497 0.16440673172473907 -3.121302843093872 0.07609951496124268 -0.9145315885543823 5.656244277954102 2.137692451477051 -4.958603382110596 -2.2524356842041016 -1.0209553241729736 -4.698795318603516 -3.317004442214966 -0.2995561361312866 -8.902059555053711 -2.3831982612609863 2.293565273284912 -0.5665827989578247 3.9294939041137695 -1.4083070755004883 -1.7185015678405762 -1.1266947984695435 -1.3888038396835327 -4.635410785675049 2.7408156394958496 -0.8919851183891296 2.3614912033081055 -0.9525448083877563 0.33099526166915894 -0.753086507320404 3.471365451812744 2.4955620765686035 0.918580174446106 4.3540544509887695 -0.19923627376556396 -2.1307461261749268 1.122336983680725 -0.6572548747062683 0.5530734062194824 0.3785684406757355 -0.4498332440853119 -5.347265720367432 -1.4036586284637451 -6.989686012268066 -0.10218885540962219 -1.0211082696914673 -0.725281298160553 -2.936464309692383 0.916654109954834
cyclosporine	2.453906297683716 -3.1779091358184814 -3.1397147178649902 -1.2451361417770386 -0.42700713872909546 2.1775667667388916 2.486147880554199 0.7740871906280518 0.8389607667922974 -4.947452545166016 -5.798943519592285 -3.7901833057403564 1.3184155225753784 -0.2027033269405365 0.30882513523101807 -3.6791763305664062 -3.8509578704833984 -0.2235267013311386 3.2347774505615234 4.410330295562744 -2.5140795707702637 -0.18380820751190186 4.39948034286499 -1.1015373468399048 -1.2548351287841797 0.283083975315094 3.860973834991455 -1.1019150018692017 -2.651618719100952 -0.8596668839454651 -7.1907148361206055 -1.562718152999878 -0.7229617238044739 -3.1423873901367188 0.4065575897693634 2.304917335510254 -5.198883533477783 -1.7659053802490234 -0.2606842517852783 0.37332457304000854 5.594511985778809 0.11014003306627274 8.232107162475586 1.474372386932373 -2.6433005332946777 4.127561092376709 -0.25311028957366943 1.327608346939087 0.6316145658493042 -4.283176898956299 -1.4374761581420898 2.1889748573303223 -1.0450453758239746 1.5796170234680176 -3.055410861968994 1.488895297050476 -0.7841694951057434 2.855133295059204 7.896899700164795 -2.439598560333252 -2.9695589542388916 -15.167149543762207 -8.749810218811035 -4.611617088317871 -0.3012855648994446 -13.075289726257324 -5.890782356262207 0.6208685636520386 0.8308365345001221 2.2421796321868896 -2.1703872680664062 -1.3852412700653076 -11.392232894897461 -1.0846567153930664 -3.555490732192993 12.960004806518555 -0.8630112409591675 2.066896438598633 -0.7198498249053955 -0.449981153011322 -0.5386644005775452 3.487309694290161 1.741300106048584 0.9408431649208069 6.3999104499816895 1.70211660861969 -0.924712061882019 0.6624497771263123 -0.3409889340400696 0.4949737787246704 1.0663269758224487 -1.0847488641738892 -6.679811000823975 -0.6225599646568298 -11.85561466217041 -0.152862548828125 -1.0896934270858765 -0.24543440341949463 -2.1423206329345703 1.9462425708770752
midazolam	8.65625286102295 -3.2872629165649414 -6.50004768371582 0.6250644326210022 -0.9085088968276978 0.9837448000907898 -1.2682044506072998 2.426480770111084 0.12177637219429016 -4.773751258850098 -5.276983261108398 -6.461899280548096 0.671451210975647 -0.9649274349212646 -0.8294943571090698 -5.158642768859863 -1.2263587713241577 1.6818792819976807 4.433212757110596 2.669346809387207 -1.9441560506820679 -4.211416721343994 3.9846599102020264 0.21024060249328613 -0.6982905864715576 1.2355751991271973 3.7233259677886963 -1.409136176109314 -2.6908111572265625 -0.12723083794116974 -11.427833557128906 1.0786994695663452 -1.5735692977905273 -4.298127174377441 2.018953323364258 3.5439045429229736 -2.0711097717285156 -1.7459383010864258 0.6227404475212097 -0.032605528831481934 7.34820032119751 -0.6385983824729919 1.5105206966400146 0.09446704387664795 -3.0406441688537598 5.833491325378418 -1.0174251794815063 0.3608309030532837 2.2503821849823 -7.691470623016357 -0.7101302742958069 1.657118797302246 0.3121165931224823 -0.5843022465705872 -3.139801263809204 1.0356448888778687 -0.8223795890808105 5.124034881591797 2.6093814373016357 -5.711345672607422 -2.6899492740631104 -2.758563995361328 -4.120371341705322 -4.058820724487305 -1.4887950420379639 -12.844023704528809 -5.13960075378418 1.0792582035064697 -0.3122161030769348 2.52640438079834 -1.3440561294555664 -0.8774504065513611 -1.901003122329712 -1.5409815311431885 -3.4840807914733887 3.7843596935272217 -1.0455865859985352 2.580681562423706 -0.9727343916893005 -0.45577049255371094 -0.15065187215805054 5.182023525238037 2.3196280002593994 1.9955135583877563 5.425777435302734 -0.4099658727645874 -2.224738597869873 1.2854254245758057 -0.780280590057373 1.8700748682022095 1.0841941833496094 -0.5481350421905518 -8.367347717285156 -0.22520114481449127 -8.34676456451416 0.6799435615539551 -0.17680171132087708 -1.936029314994812 -2.7818498611450195 0.7300403118133545
tacrolimus	5.1537957191467285 -1.968261480331421 -1.4565678834915161 -0.03122449666261673 -0.34597891569137573 5.101068019866943 0.1630725860595703 0.8695714473724365 1.3775238990783691 -5.006749153137207 -5.645819664001465 -3.079368829727173 0.9146842360496521 -3.121267795562744 1.4896888732910156 -2.570038318634033 -0.8574337959289551 0.9411316514015198 4.545949935913086 5.898152828216553 -5.24545955657959 -1.7836748361587524 4.12288761138916 -0.49650880694389343 0.3858039379119873 -0.6032166481018066 2.0499367713928223 -0.7129157185554504 -3.4344563484191895 0.17351944744586945 -4.291894435882568 -2.116750717163086 -0.32192766666412354 0.7389918565750122 1.8316891193389893 3.4624807834625244 -3.4113595485687256 -2.6301872730255127 1.7128249406814575 -0.13379479944705963 1.9217393398284912 -0.47958558797836304 4.3289265632629395 2.5006256103515625 -3.7246575355529785 5.568334579467773 -1.082449197769165 0.29934588074684143 1.3026785850524902 -3.1162402629852295 -1.638824701309204 1.9095420837402344 -1.015977144241333 1.0121291875839233 -2.293158769607544 0.9308165907859802 1.018774390220642 2.57405161857605 8.265530586242676 -2.1882967948913574 -1.565438151359558 -16.689912796020508 -10.065608024597168 -3.052457332611084 -2.434612274169922 -13.046684265136719 -5.44711971282959 0.9477016925811768 0.6484874486923218 2.2991812229156494 -2.1647610664367676 1.040846347808838 -11.620003700256348 -0.9802509546279907 -2.9600396156311035 17.47479820251465 -0.7262022495269775 2.2885050773620605 0.12972736358642578 -2.3980672359466553 0.025609314441680908 1.7161130905151367 1.5726951360702515 0.9214996695518494 5.798122406005859 1.360461950302124 -0.5259120464324951 0.49140793085098267 0.734212338924408 -0.19992178678512573 0.4204446077346802 1.4848934412002563 -4.568973064422607 -0.3305146396160126 -10.267410278320312 0.5136457085609436 1.1606223583221436 0.5099882483482361 -1.9338433742523193 2.2213873863220215
cinacalcet	8.311957359313965 -2.9917938709259033 -6.7118024826049805 0.8605474233627319 -1.6246309280395508 -0.6060172915458679 -0.9724302291870117 4.837671756744385 -1.2856926918029785 -3.4603493213653564 -3.1547982692718506 -7.7822651863098145 0.6057292819023132 -3.911879062652588 -0.9549539089202881 -4.004143238067627 -0.16473650932312012 1.7609264850616455 1.9638110399246216 4.274892807006836 -3.3617501258850098 -3.7890429496765137 7.536272048950195 0.12062257528305054 -1.1853675842285156 1.2856812477111816 3.4199929237365723 -2.5660862922668457 -2.0702624320983887 -0.40866416692733765 -8.674215316772461 0.976080596446991 -0.017897307872772217 -7.348246097564697 2.917649745941162 4.438510894775391 -1.6033354997634888 -1.384238839149475 -0.31391721963882446 0.18340635299682617 8.373332977294922 -1.2446119785308838 -0.6783556342124939 0.13093946874141693 -5.759744644165039 4.8445940017700195 -1.9662882089614868 -1.055214524269104 3.550142288208008 -7.758424282073975 -1.0308120250701904 1.4502583742141724 -0.4292047619819641 0.03335663676261902 -2.774325370788574 2.094212055206299 0.8783275485038757 2.0586938858032227 5.181731700897217 -1.1648118495941162 -1.6273291110992432 -4.857364654541016 -7.290058612823486 -4.11705207824707 -1.4218113422393799 -12.501070976257324 -3.1216490268707275 -0.14990130066871643 0.3784952461719513 1.5143063068389893 -1.7929058074951172 -1.3891154527664185 -4.933030605316162 -0.9915860891342163 -3.5613014698028564 8.394614219665527 0.7773866057395935 1.6444740295410156 0.5791589617729187 -1.2197368144989014 -1.8012197017669678 3.428316354751587 1.3813326358795166 -0.8803334832191467 5.3399200439453125 0.8704919219017029 -0.9566056728363037 -1.1870832443237305 0.7718139886856079 1.5087239742279053 0.8038419485092163 -0.20239105820655823 -6.605711460113525 0.7050446271896362 -10.114645004272461 -1.125199794769287 -2.4412450790405273 1.4749363660812378 -2.022702932357788 1.4854366779327393
celecoxib	4.731119632720947 -6.407560348510742 -4.162846088409424 1.6883447170257568 -1.052501916885376 1.4659701585769653 -0.12261331081390381 0.5377060174942017 -0.4200766682624817 -4.0419440269470215 -2.519948959350586 -8.653053283691406 1.957621693611145 1.2149062156677246 -1.0797326564788818 -4.7043538093566895 -4.990825653076172 1.3294217586517334 4.945427894592285 -0.438961386680603 0.0016087889671325684 -2.038062572479248 1.2046529054641724 -1.6251780986785889 0.20834563672542572 -0.8502925038337708 2.4436535835266113 -0.8594534993171692 -3.780261516571045 -0.23787890374660492 -4.418752193450928 0.5637233853340149 -2.8554024696350098 -6.009329795837402 -1.2400927543640137 3.1973299980163574 -2.889248847961426 -1.7013132572174072 0.206854447722435 -0.14651471376419067 3.963658094406128 -0.9257268309593201 5.347204685211182 1.5884530544281006 -1.857560157775879 3.2613186836242676 0.3712806701660156 -3.7658348083496094 -2.258744239807129 -8.176199913024902 -0.6190236210823059 1.7031251192092896 0.35255545377731323 0.04747549816966057 -3.4580235481262207 0.9424790740013123 -0.8474850058555603 6.264956951141357 1.7567620277404785 -7.453547954559326 -4.467126369476318 -3.7617359161376953 -5.958957672119141 -4.693151950836182 -1.2893331050872803 -12.36700439453125 -5.620992660522461 1.0481398105621338 -0.5105180144309998 2.4058051109313965 -1.4165802001953125 -0.9449275135993958 -2.2708523273468018 -1.6048252582550049 -3.3656463623046875 4.270483493804932 -1.0689254999160767 1.6713494062423706 -0.9777945876121521 -0.27673423290252686 -0.05453205108642578 5.386955738067627 2.4450674057006836 1.6739872694015503 4.754039764404297 -0.3534276485443115 -2.1723310947418213 1.1959446668624878 -0.8636443018913269 1.3877761363983154 1.1675543785095215 -1.0088740587234497 -6.459122180938721 -0.8286266326904297 -10.0837984085083 0.5123879313468933 -0.4177405834197998 -2.28167462348938 -2.5882015228271484 0.46412745118141174
cisplatin	0.5931850671768188 0.001900702714920044 -1.8897367715835571 -1.7876783609390259 -0.5873298048973083 4.074982166290283 0.565797746181488 0.5398750305175781 -0.5181316137313843 -3.6508471965789795 -2.9251914024353027 -1.1874722242355347 0.7621089816093445 0.7760326862335205 -1.0894001722335815 -3.003605842590332 0.8088960647583008 -1.5719270706176758 3.9830429553985596 1.317215085029602 -0.3121728301048279 -0.10279510915279388 -0.5414625406265259 -0.2937156558036804 -1.0135576725006104 -0.8182612657546997 1.6680715084075928 -0.15910741686820984 -1.7304682731628418 -0.22017943859100342 -3.762362480163574 0.43118616938591003 -1.7606384754180908 0.18642720580101013 0.6629489660263062 0.9569985270500183 -0.92182457447052 0.905761182308197 -0.3691962957382202 1.356553316116333 2.1009416580200195 0.0014446377754211426 2.9763035774230957 5.2866363525390625 0.07604947686195374 3.0982322692871094 0.6135141253471375 -0.7333701848983765 -0.337536484003067 -2.2534449100494385 0.04997831583023071 -0.44448792934417725 -0.057540059089660645 -0.303776353597641 -0.6022391319274902 0.7466073036193848 0.16632577776908875 4.129739761352539 2.8459737300872803 -0.26500141620635986 0.33917900919914246 -1.2606092691421509 -2.977243661880493 -0.6028105616569519 -1.9921770095825195 -5.534186363220215 -0.021438241004943848 -0.09608659148216248 -0.5241228342056274 2.6932308673858643 -1.9595577716827393 0.5909038186073303 -0.3668368458747864 0.8508718609809875 0.2629550099372864 1.606095552444458 0.21514177322387695 0.9745331406593323 -1.1454023122787476 -0.23009474575519562 -3.9706883430480957 2.263072967529297 2.804882287979126 -0.7603851556777954 4.488868236541748 0.6050862669944763 -0.9737086296081543 -0.011288583278656006 0.35052716732025146 1.1002826690673828 -0.5217525362968445 1.4670634269714355 -0.3728638291358948 0.9811698198318481 -2.491379976272583 -0.027118682861328125 -0.16460004448890686 1.6053892374038696 -2.705117702484131 -0.968299925327301
doxorubicin	4.178248882293701 -0.6198391914367676 -2.5156164169311523 0.16546079516410828 -1.4143909215927124 -0.04032057523727417 -0.8282073736190796 2.4139347076416016 -0.6059082746505737 -4.636783599853516 -5.047948360443115 -7.012055397033691 -0.5732965469360352 -2.991328001022339 1.1084507703781128 -4.741257667541504 -0.908038318157196 1.7324178218841553 4.3795390129089355 3.6498215198516846 -3.9831037521362305 -0.8736339211463928 4.624601364135742 0.5782663226127625 0.10361418128013611 -0.7593961954116821 4.563778877258301 -0.45842981338500977 -1.6959168910980225 -0.5153019428253174 -2.3919577598571777 1.6166234016418457 -1.989097237586975 -1.4412403106689453 0.6201321482658386 2.1758251190185547 -3.693103551864624 -2.636770009994507 0.5676361918449402 1.362426996231079 3.8341352939605713 0.18432606756687164 4.380053997039795 -1.4925782680511475 -1.6591696739196777 5.574405670166016 0.20189227163791656 -0.19950330257415771 2.4160819053649902 -5.290340423583984 -1.240126609802246 1.8516910076141357 -0.8100840449333191 -1.069530725479126 -2.423576831817627 0.2719992697238922 0.7821085453033447 6.614800453186035 3.632535934448242 -6.224444389343262 -1.3676990270614624 -7.360012531280518 -6.175149917602539 -3.4998137950897217 -2.4353718757629395 -14.056981086730957 -5.464430332183838 1.658467173576355 1.126590371131897 3.095888376235962 -1.3351542949676514 0.3731144964694977 -4.276894569396973 -1.0120798349380493 -3.462122917175293 7.697658061981201 -1.6485384702682495 2.6330642700195312 -0.25470873713493347 -1.1554481983184814 1.0411860942840576 5.211857795715332 3.1370136737823486 1.8441486358642578 5.963901996612549 0.22510820627212524 -1.7877734899520874 0.5532047152519226 -0.26520857214927673 1.4170598983764648 -0.32379478216171265 1.6280739307403564 -5.104969501495361 0.11371195316314697 -9.678882598876953 3.0873072147369385 1.2203009128570557 1.187049150466919 -3.0905215740203857 1.416428804397583
etoposide	4.090358734130859 -0.8791428804397583 -1.0010285377502441 0.005711160600185394 -0.48075681924819946 5.049074172973633 -1.7050962448120117 0.6080045104026794 1.1152960062026978 -5.264939308166504 -8.047687530517578 -2.577345371246338 0.320562481880188 -2.8655667304992676 -0.0042174458503723145 -1.82621431350708 -1.0793070793151855 1.0207258462905884 6.0271100997924805 5.133581638336182 -4.0935139656066895 -1.8588201999664307 3.2295455932617188 0.3790076971054077 0.29702228307724 -0.49207258224487305 0.8941909074783325 0.21851953864097595 -2.787520408630371 -0.0035342518240213394 -3.172090768814087 0.37241244316101074 -1.9555211067199707 1.3020412921905518 2.2138357162475586 2.237765073776245 -1.7312231063842773 -2.594076156616211 1.0089178085327148 0.07211732864379883 0.03476309776306152 -0.021365031599998474 4.586361885070801 1.185269832611084 -2.1548678874969482 6.089574813842773 -1.1448841094970703 1.0062447786331177 0.8962885141372681 -3.208899974822998 -0.8208838105201721 2.549633502960205 -0.9605123996734619 -0.2817431688308716 -3.9560253620147705 1.3193511962890625 -1.1142833232879639 4.255884647369385 6.841200828552246 -1.1551165580749512 -1.7512978315353394 -12.136713981628418 -7.693196773529053 -3.1102499961853027 0.05556917190551758 -14.068711280822754 -2.3271279335021973 -0.057113803923130035 1.9664835929870605 2.429091453552246 -2.302424907684326 -0.39880162477493286 -8.082222938537598 0.9254688620567322 -3.650569200515747 11.284278869628906 1.0398057699203491 -0.05933648347854614 1.2023813724517822 -1.1021740436553955 0.7906960248947144 4.373042106628418 -1.4549167156219482 1.290396809577942 10.622117042541504 2.7532854080200195 0.20907250046730042 -0.20999085903167725 -1.1292874813079834 -0.0530318021774292 0.7584712505340576 1.4863793849945068 -5.738017559051514 0.615597665309906 -10.794135093688965 0.36420562863349915 -0.9080187082290649 0.45607003569602966 -2.9670982360839844 -0.9593722820281982
clopidogrel	6.6372480392456055 -0.4233674705028534 -5.417890548706055 0.20763438940048218 -1.3215563297271729 0.19749832153320312 -0.7252440452575684 4.82306432723999 -1.9656586647033691 -3.8042116165161133 -3.0101068019866943 -5.659418106079102 0.11885321140289307 -1.4477473497390747 -0.409033864736557 -4.557724952697754 0.8886611461639404 0.9469050168991089 2.3010647296905518 4.722588539123535 -0.747940719127655 -1.5810729265213013 0.04520174860954285 0.42656582593917847 -0.5895087718963623 -0.769024133682251 2.2692530155181885 -1.380100965499878 -2.1732285022735596 -0.41645127534866333 -5.464444160461426 0.8103190660476685 0.8428478837013245 -3.397289514541626 3.008345127105713 1.7423827648162842 -0.8594264984130859 0.8025826215744019 -0.35025840997695923 0.8285778164863586 7.742193698883057 0.2898404002189636 -0.09770679473876953 2.075043201446533 -0.8680835962295532 4.7543463706970215 -0.6836355328559875 -0.434788316488266 2.7492215633392334 -4.353052616119385 -0.637882649898529 2.40954327583313 -0.942054271697998 0.062205970287323 -4.140320777893066 1.3394010066986084 -1.0545015335083008 3.0779027938842773 5.823103904724121 -1.1761473417282104 -2.98630952835083 -4.90091609954834 -7.645825386047363 -3.5461232662200928 0.10724127292633057 -13.669086456298828 -3.5037410259246826 -0.10305402427911758 2.025230646133423 2.6369874477386475 -2.5959348678588867 -0.4286845326423645 -4.777685642242432 0.9125816822052002 -3.4222564697265625 6.671247959136963 1.0447112321853638 -0.14120662212371826 1.0720280408859253 -1.4256484508514404 0.5112337470054626 5.5138068199157715 -1.4470782279968262 1.262865662574768 8.917736053466797 2.253906488418579 0.08970117568969727 -0.18560707569122314 -1.1642417907714844 -0.056779325008392334 0.7063037753105164 1.4833199977874756 -5.867725849151611 0.5259257555007935 -10.538997650146484 0.32583534717559814 -1.2557835578918457 0.47183048725128174 -2.8843038082122803 -0.9969611763954163
omeprazole	8.63460922241211 -3.9748053550720215 -5.850579738616943 1.3180978298187256 -1.6061956882476807 -0.6251838207244873 0.15947705507278442 1.978236198425293 -0.5456407070159912 -4.706847190856934 -3.993645191192627 -6.758067607879639 1.0883886814117432 -3.0649259090423584 -0.7745468616485596 -5.877330780029297 -1.8674321174621582 0.7493100166320801 3.7654590606689453 5.291501998901367 -4.2429728507995605 -2.0170674324035645 8.47534465789795 1.0555167198181152 -1.6170474290847778 0.2356143593788147 4.196393013000488 -2.4997997283935547 -3.358048439025879 -0.3724783658981323 -8.884061813354492 0.2815810739994049 0.9890902042388916 -4.6742143630981445 2.2731587886810303 3.980863332748413 -3.1152255535125732 -2.0687355995178223 0.09531555324792862 -0.1166350245475769 6.8286638259887695 -0.07013973593711853 2.1637990474700928 1.3546638488769531 -5.048309326171875 5.506128311157227 -1.2494007349014282 0.6463042497634888 1.7812833786010742 -6.844629764556885 -1.2310001850128174 1.7218754291534424 -0.912914514541626 0.8106750249862671 -3.110171318054199 0.28732067346572876 0.7942469716072083 6.5680646896362305 2.7214136123657227 -9.265894889831543 -4.783337593078613 -3.616943836212158 -6.140392780303955 -3.868549108505249 -2.4366443157196045 -12.134713172912598 -5.158900260925293 1.3932394981384277 1.147581696510315 2.9977095127105713 -1.3515708446502686 0.25930550694465637 -2.720430612564087 -1.0070643424987793 -3.105893135070801 3.7028846740722656 -1.6995561122894287 2.603135585784912 -0.039002757519483566 -1.1192597150802612 1.0329339504241943 6.889042377471924 2.8082141876220703 1.6668784618377686 6.590143203735352 0.7188105583190918 -1.66294527053833 0.4718988835811615 -0.5049704909324646 0.5302561521530151 0.16914033889770508 1.4636361598968506 -4.7763166427612305 -0.26882582902908325 -10.192086219787598 2.914747476577759 1.249417781829834 0.9760804772377014 -3.1236062049865723 1.2146377563476562
pantoprazole	10.075837135314941 -5.235842227935791 -8.508658409118652 0.8755934238433838 -1.4517329931259155 -0.7493431568145752 -0.76004958152771 3.327755928039551 -1.1100521087646484 -4.895731449127197 -4.861733436584473 -7.583532333374023 2.040050506591797 -2.63539457321167 -0.9149089455604553 -5.496651649475098 0.6451810598373413 1.270646095275879 4.091859817504883 4.525579452514648 -2.6743667125701904 -4.843999862670898 6.168557167053223 1.3434219360351562 -2.5156540870666504 0.7832446098327637 3.5115041732788086 -2.533504009246826 -3.448707103729248 0.0486203096807003 -10.601522445678711 0.4343881607055664 1.4129164218902588 -4.9235639572143555 2.8533284664154053 5.878484725952148 -2.1096303462982178 -1.023464560508728 -0.35613352060317993 -0.8465039134025574 7.030439853668213 -0.532288134098053 -0.5402494668960571 0.8729594945907593 -5.941059112548828 5.317451477050781 -1.2956295013427734 -3.504986047744751 1.6394522190093994 -8.686880111694336 -1.242563009262085 1.833722472190857 -0.9344399571418762 1.294417381286621 -2.389263153076172 0.2961360216140747 0.8085611462593079 9.063285827636719 4.535977840423584 -7.360289573669434 -4.271265983581543 -3.5881435871124268 -6.026663780212402 -2.7071776390075684 -2.362884044647217 -12.337449073791504 -7.623214244842529 1.2450275421142578 1.289135456085205 3.3628196716308594 -1.3832323551177979 0.2789067029953003 -3.209695339202881 -1.003813624382019 -3.1245901584625244 4.519444465637207 -1.7176040410995483 2.3195509910583496 0.013018074445426464 -1.085035800933838 1.1130778789520264 7.231945037841797 2.9245426654815674 1.6213114261627197 8.034337997436523 0.8476275205612183 -1.6155593395233154 0.457472026348114 -0.5318376421928406 0.31198349595069885 0.2769443988800049 1.404381513595581 -3.3815040588378906 -0.29043105244636536 -10.663922309875488 2.8926377296447754 1.2424029111862183 1.1436078548431396 -3.6648082733154297 1.171496033668518
minocycline	5.259654521942139 -2.198211193084717 0.20762640237808228 1.9455846548080444 0.4997621178627014 3.804163932800293 -0.7402622699737549 0.17635297775268555 -0.23651374876499176 -5.5484795570373535 -5.820204734802246 -1.8150267601013184 -0.06755417585372925 -2.1354258060455322 0.08716282248497009 -2.5982179641723633 -2.8780102729797363 1.3065159320831299 2.9910671710968018 5.388301372528076 -5.0319671630859375 -3.595895767211914 5.18338680267334 -0.23687952756881714 -1.2049641609191895 1.0289846658706665 2.6796255111694336 -1.4133142232894897 -2.189239263534546 1.0984950065612793 -6.865340232849121 -0.34426212310791016 -1.2062668800354004 0.6965935826301575 0.35766613483428955 2.639291524887085 -2.9854531288146973 -3.057756185531616 0.5195981860160828 0.7816689014434814 0.6923421621322632 -1.7278085947036743 6.361472129821777 1.0299159288406372 -5.771945953369141 5.343503475189209 -1.5455213785171509 0.5365108847618103 0.3696528673171997 -5.385392189025879 -0.6479474902153015 2.380896806716919 -0.9238559007644653 0.9381914734840393 -4.2928314208984375 1.4478644132614136 -1.045427918434143 3.0160744190216064 6.952197551727295 -2.800865650177002 -3.4935691356658936 -9.18808364868164 -8.237811088562012 -3.6695783138275146 0.129938542842865 -14.210711479187012 -2.9747443199157715 -0.17507609724998474 2.0228629112243652 2.4710001945495605 -2.4575467109680176 -0.4354504346847534 -8.040166854858398 0.9424358606338501 -3.2966408729553223 10.132485389709473 1.0540286302566528 -0.2009856104850769 1.1119824647903442 -1.3799327611923218 0.43471935391426086 5.261557579040527 -1.5074286460876465 1.2755939960479736 9.622090339660645 2.5450439453125 0.32790809869766235 -0.2175980806350708 -1.221268892288208 -0.05041438341140747 0.8976574540138245 1.3166000843048096 -7.0772480964660645 0.3818075358867645 -11.135737419128418 0.20678681135177612 -1.5888328552246094 0.3395860195159912 -2.790175676345825 -1.0619760751724243
fosfomycin	3.1693687438964844 -1.9908533096313477 -2.0531983375549316 0.9303742051124573 -0.8056823015213013 -0.13355839252471924 -0.18935567140579224 -0.07232141494750977 -0.7741782665252686 -4.241113662719727 -5.692549228668213 -5.036280632019043 0.7566152215003967 -2.9552509784698486 1.6506009101867676 -4.241964817047119 -1.5808130502700806 1.3006060123443604 5.3159871101379395 3.4089534282684326 -3.389068126678467 -0.7110137939453125 3.5696444511413574 1.0085973739624023 -0.4834568202495575 -0.9270735383033752 3.0746214389801025 -0.16194838285446167 -3.6949498653411865 0.6740758419036865 -0.8551543354988098 0.16485360264778137 -2.7588448524475098 0.46336767077445984 -1.0027368068695068 2.961581230163574 -4.6415863037109375 -2.7536919116973877 0.3128727078437805 0.4295738935470581 0.8111169338226318 -0.04265020787715912 5.818188667297363 -1.488434076309204 -2.329407215118408 4.270219326019287 0.023415453732013702 -1.3711259365081787 0.3814622163772583 -4.238300323486328 -1.2049435377120972 1.494157075881958 0.10171425342559814 -1.2409995794296265 -2.092289924621582 2.0357861518859863 0.8548775315284729 2.019874334335327 6.091346740722656 -0.8027823567390442 0.13308176398277283 -4.625803470611572 -6.371698379516602 -3.3894386291503906 -1.408617377281189 -9.321878433227539 -2.892519474029541 0.15884147584438324 0.2780839204788208 1.475678563117981 -1.334259271621704 -1.1224634647369385 -4.777857780456543 -1.0061252117156982 -2.374582052230835 8.254247665405273 0.6325051784515381 1.6980444192886353 0.5353908538818359 -1.6430155038833618 -1.3697047233581543 0.9219871759414673 1.5575714111328125 -0.8612561225891113 4.3321757316589355 0.27261558175086975 -0.381264328956604 -1.080744981765747 1.0939160585403442 1.6139488220214844 0.3170451521873474 0.4779839813709259 -4.899956226348877 1.3080334663391113 -6.116408348083496 -0.7275596857070923 -2.4440698623657227 1.9117558002471924 -1.2619006633758545 1.6000354290008545
levothyroxine	3.4968061447143555 -1.5717520713806152 -1.4666043519973755 0.3552069664001465 -1.5234591960906982 -0.14812928438186646 -0.20560675859451294 0.21400636434555054 -0.7036346793174744 -4.564416408538818 -4.448177337646484 -7.06104850769043 1.295034646987915 -1.1457116603851318 1.2866257429122925 -4.310705661773682 -1.4996411800384521 0.3068316578865051 4.161986351013184 -0.04970131814479828 -2.6609277725219727 -0.3836791515350342 4.156421661376953 0.8889952898025513 -0.22583669424057007 -0.8903965353965759 3.567160129547119 0.02421209216117859 -1.8610923290252686 -0.6025433540344238 -3.1977667808532715 0.06013529747724533 -2.110400676727295 -3.250777006149292 -1.184550166130066 1.792900562286377 -4.423456192016602 -1.688138723373413 -0.10697376728057861 0.20634043216705322 3.497725009918213 0.05063394457101822 5.55396842956543 -1.559030532836914 -1.902266263961792 3.2808799743652344 -0.3334406018257141 -1.1099250316619873 0.5143343806266785 -6.472790718078613 -1.3354122638702393 -0.10331787914037704 -0.39215975999832153 -1.3513965606689453 -1.7951751947402954 1.46592378616333 0.6990242004394531 1.9847606420516968 4.171039581298828 -0.6801127791404724 -0.9148715138435364 -4.141050815582275 -5.999553203582764 -4.087965965270996 -1.8796086311340332 -10.401460647583008 -2.182204484939575 0.17168676853179932 -0.2913481891155243 1.658541202545166 -1.7965061664581299 -1.6295890808105469 -2.8974554538726807 0.5847057104110718 -2.169755220413208 6.042659759521484 0.6898013949394226 1.765491008758545 -0.23513616621494293 -1.0734169483184814 -3.805788040161133 3.3295016288757324 1.600696325302124 -0.8024001717567444 5.803917407989502 0.22117838263511658 -0.8504387140274048 -0.9239559769630432 0.9827288389205933 1.9041023254394531 -0.722980797290802 0.5215557217597961 -5.096869945526123 1.3046469688415527 -7.8116374015808105 -0.27608823776245117 -2.196384906768799 1.827904224395752 -1.8835445642471313 -0.9631667733192444
calcium	0.2569495141506195 -1.1770305633544922 0.08709883689880371 -1.0399601459503174 0.11069870740175247 0.1446043998003006 -0.4866424798965454 0.29704052209854126 -0.9003218412399292 -1.0440089702606201 -1.6075674295425415 0.029290974140167236 -0.23544974625110626 -0.6520125269889832 -0.9125148057937622 -0.10062077641487122 0.21993601322174072 -0.43191996216773987 0.9693238735198975 0.7308062314987183 -1.067070484161377 -1.0113165378570557 0.042984575033187866 0.703204333782196 -0.9358545541763306 -1.1374187469482422 0.5789982676506042 1.3521455526351929 -0.7884858250617981 -0.2056623101234436 -0.9409873485565186 -0.5006986260414124 0.3518030643463135 0.9522215127944946 0.7005653381347656 0.6641070246696472 0.6137646436691284 -0.28049182891845703 -0.31243032217025757 1.307645320892334 0.12048611044883728 -0.511848509311676 0.38697367906570435 1.0385615825653076 0.3174528479576111 1.2304884195327759 0.1756351888179779 -0.19410520792007446 -0.28380680084228516 -0.3343107998371124 -1.1007777452468872 1.050459384918213 0.03100341558456421 0.017864365130662918 -0.02439887821674347 0.5493751764297485 -0.6538476943969727 1.9142643213272095 1.6397504806518555 -0.07114136219024658 0.0621466226875782 -0.9562171697616577 -2.062450408935547 -1.8937441110610962 -1.0080149173736572 -2.179811716079712 -0.17124086618423462 0.3493528664112091 -0.5456075072288513 0.3660479187965393 -1.3184996843338013 -1.0461679697036743 -1.1465470790863037 -1.3263245820999146 -0.373080313205719 1.6859586238861084 0.8852036595344543 0.7538449764251709 -1.0506913661956787 -1.3245049715042114 -1.0095504522323608 0.044908612966537476 2.3151464462280273 0.7669789791107178 1.5257022380828857 0.09563708305358887 -0.16161422431468964 -1.9113695621490479 0.04349280893802643 0.7157019376754761 0.9766218662261963 -0.6318536400794983 -1.308139443397522 0.24357467889785767 -1.1929998397827148 -0.7615106701850891 -0.36316558718681335 1.298316240310669 -0.4445887506008148 0.5859407186508179
iron	0.597671627998352 -0.5438523292541504 0.12892667949199677 -0.9993898868560791 -0.0004397556185722351 0.153986394405365 -0.4564993381500244 0.4860631227493286 -0.7572861909866333 -0.5892086029052734 -1.497369647026062 -0.4732770025730133 -0.3869357705116272 0.33176398277282715 -1.4616737365722656 0.029683589935302734 -0.18477708101272583 0.49918806552886963 1.3026124238967896 0.30625808238983154 -0.06551823019981384 -0.9001047611236572 0.19840413331985474 0.39106354117393494 0.019883843138813972 -1.5449185371398926 0.44052180647850037 1.273728609085083 -0.5053178071975708 -0.28950998187065125 -0.09045879542827606 0.21623703837394714 0.21614070236682892 0.7702873349189758 0.27327990531921387 0.9797458648681641 0.6617555618286133 -0.10541660338640213 -0.18441486358642578 0.5346782803535461 0.2188938856124878 0.05757123604416847 0.7346049547195435 0.6727017164230347 0.2871156632900238 1.0925077199935913 0.31567054986953735 -0.6124712228775024 -0.8364109992980957 -0.778372049331665 0.2542705535888672 0.022446542978286743 -0.8578034043312073 -0.02534383535385132 -0.3535337448120117 1.430799961090088 -0.31488826870918274 1.8906779289245605 1.4302728176116943 -0.4094201922416687 -0.7367011308670044 -1.0927598476409912 -1.861011028289795 -1.004523754119873 0.8080779910087585 -1.5102665424346924 -0.18985354900360107 0.4054456353187561 1.874559998512268 -0.14727354049682617 -0.7187889814376831 0.9693803787231445 -1.3525559902191162 0.12765046954154968 0.6391568183898926 1.1019973754882812 0.8774142265319824 0.7156726121902466 -0.29851067066192627 -1.0110634565353394 -1.3968613147735596 0.5918607711791992 -0.6079279184341431 0.9487234950065613 1.6773617267608643 1.1818864345550537 -0.971452534198761 -1.3635238409042358 1.0493924617767334 0.6514348387718201 0.6848089694976807 -0.3300776481628418 0.5743712782859802 1.4436545372009277 -1.3671646118164062 1.300877571105957 1.5163469314575195 0.7987093329429626 -1.3290866613388062 -1.0387157201766968
ferrous sulfate	0.08024005591869354 -0.2783002257347107 0.33408045768737793 -5.615579605102539 -0.7106176018714905 -0.011834263801574707 -0.2807784676551819 0.6152653694152832 -0.514247715473175 0.14192555844783783 -4.394537925720215 -2.9005656242370605 0.41914016008377075 -1.8212236166000366 1.3112667798995972 -1.794053077697754 -0.13707315921783447 0.36756640672683716 4.279173374176025 -2.9895191192626953 -1.344677448272705 -0.15104663372039795 2.03523588180542 1.0012576580047607 0.0963803082704544 -0.8075513243675232 2.455019235610962 -0.015267789363861084 -0.4076862335205078 -2.247117519378662 0.201460063457489 0.12359127402305603 -2.727358102798462 0.3270597755908966 -1.3055895566940308 1.2086913585662842 -2.057241916656494 -0.3343557119369507 -0.3637146055698395 0.6879869699478149 0.2289373129606247 0.018028639256954193 3.894702434539795 -1.3507020473480225 -0.5875605940818787 1.308103322982788 0.17864269018173218 -1.288010835647583 0.27938705682754517 -3.1509623527526855 -1.0690406560897827 1.3800143003463745 -0.920247495174408 -3.591447591781616 -1.0681321620941162 -1.4611632823944092 0.589018702507019 7.334964752197266 7.816665172576904 -2.7556777000427246 -0.67535799741745 -3.75004243850708 -2.4297235012054443 1.0263547897338867 -2.3599703311920166 -14.21023178100586 -3.558495044708252 3.3793346881866455 14.027921676635742 7.167803764343262 -3.0130527019500732 1.0331251621246338 -2.2781989574432373 0.9716718792915344 -2.6058521270751953 1.8949579000473022 -1.0927926301956177 2.247974395751953 0.8258570432662964 -2.615217924118042 -0.22389909625053406 3.7673325538635254 1.9939512014389038 0.5273050665855408 13.674212455749512 1.4722530841827393 -1.671169400215149 0.028350278735160828 0.46984225511550903 4.301577568054199 -0.6934477686882019 1.0521950721740723 0.9794098138809204 -0.648242175579071 -4.997890949249268 3.6984026432037354 0.9969416856765747 1.4493694305419922 -5.9224066734313965 4.073461532592773
calcium chloride	0.34375274181365967 -1.7699437141418457 0.1111738383769989 -4.4449782371521 0.41774916648864746 1.1071959733963013 -0.8979823589324951 -0.016627073287963867 -2.253424882888794 0.7393543720245361 -4.721107482910156 -0.8141723275184631 -1.212592363357544 -0.6748486757278442 -2.334329128265381 -0.642368495464325 0.21997639536857605 0.7532991766929626 3.409231424331665 0.6991919279098511 0.9204679727554321 -1.2390859127044678 0.2539581060409546 1.262012004852295 -1.3466464281082153 -2.247098684310913 0.351942241191864 1.6973185539245605 -1.4780703783035278 -0.525405764579773 -2.994908571243286 0.3576427698135376 -0.11973567306995392 1.286517858505249 2.3941078186035156 1.4826651811599731 1.404670238494873 1.172906756401062 0.0805809497833252 3.0086402893066406 0.27504903078079224 0.10313639044761658 1.9774024486541748 3.082324981689453 0.11275920271873474 2.9457967281341553 0.061604082584381104 -0.6169478297233582 -0.41652363538742065 -1.2252150774002075 -1.962907075881958 1.2699013948440552 -0.7566080689430237 1.5547350645065308 0.4251432716846466 1.2808243036270142 -0.5170423984527588 5.76075553894043 5.969711780548096 -0.33700472116470337 -2.5247950553894043 -4.978454113006592 -6.723760604858398 -3.4972662925720215 0.45946764945983887 -7.5848917961120605 -0.02730107307434082 0.37304794788360596 2.6646835803985596 0.16087567806243896 -2.026254653930664 -2.4237990379333496 -5.003983974456787 -1.18947172164917 -4.020762920379639 5.010660171508789 0.960412323474884 0.7017580270767212 -0.7271170020103455 -1.5174098014831543 1.1762529611587524 3.6430857181549072 0.8038346171379089 1.1758912801742554 6.4217376708984375 4.758620738983154 -0.9449011087417603 -1.9538955688476562 -0.34978169202804565 0.31218093633651733 0.9199347496032715 -0.6512560248374939 -4.08096170425415 -0.07801966369152069 -5.1174774169921875 -0.010760903358459473 -0.16586244106292725 1.329713225364685 -1.7504671812057495 -0.25394758582115173
sunitinib	5.147438049316406 -4.672120571136475 -6.318227767944336 1.2665764093399048 -1.8890211582183838 -0.7108654379844666 0.21641063690185547 3.0034024715423584 -1.3098150491714478 -4.069594383239746 -4.217005729675293 -6.244910717010498 1.027518391609192 -2.2063450813293457 -0.7543811202049255 -4.843739986419678 -0.6691139936447144 0.8672983050346375 3.0249392986297607 3.1221187114715576 -2.0227067470550537 -2.571596145629883 3.80397629737854 -0.1695057600736618 -1.3825833797454834 0.1520954966545105 4.744536399841309 -2.276609182357788 -2.055567741394043 -0.4592953324317932 -9.143367767333984 0.27578604221343994 1.4455170631408691 -7.534062385559082 2.351163625717163 4.054110527038574 -2.5806195735931396 -1.9656167030334473 -0.19889423251152039 -0.16491466760635376 8.494836807250977 0.5975534915924072 0.7709084153175354 1.367704153060913 -3.916989326477051 5.1536078453063965 0.2296328991651535 -0.5585848689079285 1.8465204238891602 -5.742659091949463 -1.0539401769638062 0.7309213876724243 -0.5275042057037354 0.7504306435585022 -3.058695077896118 0.4898476302623749 -0.9210707545280457 9.704055786132812 4.534735679626465 -8.314353942871094 -4.55158805847168 -3.2099194526672363 -8.280448913574219 -5.009060382843018 -0.5984416604042053 -14.992964744567871 -8.375118255615234 1.535791277885437 0.33622708916664124 3.4061381816864014 -1.6338729858398438 -1.6960031986236572 -3.362133741378784 -1.1500458717346191 -4.833275318145752 5.4925456047058105 -1.427686333656311 2.2254464626312256 -0.40514084696769714 -0.7370281219482422 -1.1624114513397217 8.455953598022461 3.425870656967163 1.1790701150894165 6.862303256988525 2.157698154449463 -1.8645269870758057 0.7962215542793274 -0.8744494915008545 0.4180377423763275 0.588475227355957 -0.32335200905799866 -6.399171352386475 -0.7994133234024048 -12.154754638671875 -0.43151211738586426 -1.1614623069763184 -0.7435067296028137 -2.704226493835449 0.37902045249938965
docetaxel	7.845054626464844 -2.817774772644043 -4.926425933837891 0.21242710947990417 -1.7076503038406372 -0.7291443943977356 -0.6505721211433411 3.8680291175842285 -1.1097558736801147 -3.9831979274749756 -4.469022750854492 -5.469796657562256 0.9253391027450562 -3.4955172538757324 -0.9070250988006592 -4.53741455078125 0.4014657735824585 1.0404797792434692 2.584527015686035 6.389926910400391 -3.082240343093872 -1.0576871633529663 6.391941547393799 -0.1277785301208496 -1.9054498672485352 0.7701644897460938 3.1741268634796143 -2.733107805252075 -3.124194622039795 0.03172874450683594 -9.71127700805664 0.40342170000076294 1.3293607234954834 -4.0234856605529785 2.9346649646759033 3.9910531044006348 -2.0648553371429443 -1.1787492036819458 -0.48367416858673096 -0.8108326196670532 6.233977794647217 -0.3600996732711792 0.9609456658363342 0.8751708269119263 -5.807463645935059 5.064330577850342 -2.4589285850524902 0.17043328285217285 2.166001558303833 -6.55863618850708 -0.6412463784217834 2.4059274196624756 -0.9480055570602417 1.4087789058685303 -4.239840507507324 1.4077200889587402 -1.044018030166626 2.8733110427856445 9.257780075073242 -2.0105743408203125 -2.830811023712158 -16.253564834594727 -9.798589706420898 -3.4589555263519287 0.11538451910018921 -14.246576309204102 -3.4542882442474365 -0.17014557123184204 2.027972459793091 2.517975330352783 -2.490245819091797 -0.48516860604286194 -12.0310697555542 0.9458562135696411 -3.2488441467285156 14.96342658996582 1.0560128688812256 -0.20656125247478485 1.158244013786316 -1.2873358726501465 0.4622577130794525 3.516786575317383 -1.5032529830932617 1.2749640941619873 9.757590293884277 2.4633498191833496 0.28488653898239136 -0.20116859674453735 -1.2421395778656006 -0.05668032169342041 0.8856245875358582 1.269104242324829 -6.83732795715332 0.2786633372306824 -11.908036231994629 0.20901283621788025 -1.7377452850341797 0.3202292323112488 -2.692282199859619 -1.0683265924453735
piperacillin	7.463651180267334 -2.1747586727142334 -5.135031700134277 1.9154696464538574 -1.0357085466384888 -0.2005748748779297 -0.03125905990600586 0.18535614013671875 -0.82799232006073 -4.527076244354248 -4.043522834777832 -8.081100463867188 1.5945463180541992 -3.662485361099243 1.5125340223312378 -5.624680042266846 -0.19326817989349365 1.0453232526779175 3.3321261405944824 4.964104175567627 -4.697587966918945 -0.7627632021903992 6.093925476074219 0.9798061847686768 -0.5040692090988159 -0.9199631214141846 2.750772476196289 -0.12400078773498535 -3.4499802589416504 -0.20193803310394287 -2.9441709518432617 0.039330996572971344 -1.6410484313964844 -2.3797760009765625 -1.0767661333084106 3.031589984893799 -4.57844352722168 -1.678046464920044 0.05179646611213684 0.1353539228439331 4.877284049987793 0.10631130635738373 3.387209892272949 -1.5753333568572998 -3.350611686706543 4.40453577041626 -1.1834419965744019 -1.7346398830413818 0.6484929919242859 -5.269472122192383 -0.7905820608139038 2.6236343383789062 -0.8915530443191528 -1.0940972566604614 -4.113322734832764 1.3478772640228271 -1.0937519073486328 4.249287128448486 6.349547386169434 -0.7983933687210083 -1.2085986137390137 -7.955835819244385 -6.907228469848633 -3.046858787536621 0.1004219651222229 -13.879168510437012 -1.909263253211975 -0.07823634147644043 1.9264558553695679 2.524204730987549 -2.31492018699646 -0.21163898706436157 -6.992542266845703 0.9065284729003906 -3.7487714290618896 9.356058120727539 1.041438102722168 -0.056524455547332764 1.1322894096374512 -1.402505874633789 0.7523924708366394 5.078269004821777 -1.4141004085540771 1.274075984954834 10.323522567749023 2.276276111602783 0.11441406607627869 -0.17955470085144043 -0.9886882305145264 -0.057134032249450684 0.6630043983459473 1.6023173332214355 -5.4193501472473145 0.845147967338562 -11.199090957641602 0.4255451560020447 -0.3621255159378052 0.6319979429244995 -2.7234349250793457 -0.8734882473945618
carbenicillin	8.080072402954102 -2.324774980545044 -4.529382705688477 1.7744516134262085 -1.1329022645950317 -0.20163673162460327 -0.026739299297332764 0.17199736833572388 -0.8231325149536133 -4.882988929748535 -4.524989604949951 -7.71653938293457 1.6126389503479004 -3.9572620391845703 1.4784228801727295 -5.925583362579346 -0.24070832133293152 1.0010474920272827 3.7416892051696777 4.539892673492432 -5.521944999694824 -0.8212056159973145 6.028331279754639 0.9905824661254883 -0.5576673150062561 -0.9196372628211975 2.90800142288208 -0.12229335308074951 -3.6315715312957764 -0.24204517900943756 -3.16694712638855 0.04758882522583008 -1.6882226467132568 -1.3978171348571777 -1.0666704177856445 3.0967390537261963 -4.562169551849365 -1.7115452289581299 0.037756845355033875 0.13040101528167725 4.046165943145752 0.10974334180355072 3.4057047367095947 -1.5783761739730835 -3.712963104248047 4.588358402252197 -1.4311689138412476 -1.8636095523834229 0.6301549673080444 -5.927345275878906 -0.7978529930114746 2.627412796020508 -0.8874508738517761 -1.3366327285766602 -4.083459854125977 1.3447961807250977 -1.095862627029419 4.2454657554626465 6.2482380867004395 -0.7472912669181824 -1.1167315244674683 -6.629228115081787 -6.830566883087158 -3.0258729457855225 0.1017676591873169 -13.663459777832031 -1.9586118459701538 -0.07595640420913696 1.9222431182861328 2.529751777648926 -2.308912515640259 -0.19719696044921875 -6.031231880187988 0.9036113023757935 -3.758471727371216 8.463494300842285 1.0404331684112549 -0.05105425417423248 1.1276261806488037 -1.4192802906036377 0.7577494978904724 5.0110578536987305 -1.4114046096801758 1.2748873233795166 10.195923805236816 2.2473387718200684 0.1093369722366333 -0.17791110277175903 -0.9725165963172913 -0.05740326642990112 0.6453434228897095 1.608055830001831 -5.397771835327148 0.8633174300193787 -10.999709129333496 0.43510007858276367 -0.3269607722759247 0.6532169580459595 -2.710695266723633 -0.8652344942092896
amikacin	4.007593154907227 -0.8642362356185913 -0.9373302459716797 -0.733073890209198 -0.5377353429794312 4.887348175048828 -1.6936638355255127 0.5786027908325195 1.1121270656585693 -5.350183486938477 -9.07870864868164 -2.5310564041137695 0.5164353847503662 -2.4543890953063965 -0.03843271732330322 -1.752447485923767 -1.0141602754592896 0.9610968232154846 6.5324554443359375 4.706691741943359 -2.661898374557495 -2.1413910388946533 3.4039816856384277 0.3636111915111542 0.2559319734573364 -0.48730790615081787 0.8199834823608398 0.28027045726776123 -2.655358076095581 -0.03718651086091995 -3.678898334503174 0.3849331736564636 -1.9229934215545654 1.2884974479675293 1.972959280014038 2.1098999977111816 -1.6549063920974731 -2.535888433456421 1.013814091682434 0.0939207673072815 -0.009677320718765259 -0.023430198431015015 4.883170127868652 1.3146790266036987 -2.1627280712127686 6.180239200592041 -1.1452568769454956 0.9691205024719238 0.8133852481842041 -3.35054349899292 -1.7154533863067627 -0.6271094083786011 -0.6632091999053955 -0.3926013112068176 -2.7453315258026123 0.6389784216880798 -1.0057260990142822 3.8113627433776855 7.8478922843933105 -2.9531025886535645 -1.1280531883239746 -13.071884155273438 -7.564321994781494 -4.419342517852783 -1.4369813203811646 -15.508257865905762 -7.462032318115234 0.9267959594726562 0.4484401345252991 3.008643627166748 -1.4146571159362793 -1.448331356048584 -9.401226043701172 0.09795576333999634 -4.795671463012695 13.232796669006348 -1.3094432353973389 2.8695857524871826 -1.0025019645690918 -0.6767645478248596 -1.0996800661087036 4.504491806030273 2.3408427238464355 1.4061222076416016 8.118134498596191 2.393918752670288 -1.441723346710205 1.2561547756195068 -0.9613466262817383 1.6654949188232422 -0.9074020385742188 -0.11080172657966614 -5.869384288787842 0.813549280166626 -10.630513191223145 1.1639155149459839 -0.6402676105499268 -0.029230386018753052 -3.3102469444274902 -0.957674503326416
doxycycline	4.993055820465088 -1.6403337717056274 -2.1000494956970215 1.8378831148147583 0.3796754777431488 4.361999034881592 -1.6533491611480713 0.9983206987380981 1.1730161905288696 -5.128810882568359 -7.0620646476745605 -2.583888292312622 -0.14507687091827393 -3.0678601264953613 1.138928771018982 -2.0863959789276123 -0.8206563591957092 2.3133625984191895 4.270358562469482 5.742837429046631 -5.415641784667969 -3.390272378921509 3.6643900871276855 0.44089949131011963 -1.3380759954452515 -0.5504013299942017 1.6395821571350098 0.13643291592597961 -3.345062732696533 1.2905464172363281 -4.571106433868408 -0.13173235952854156 -2.2543492317199707 1.9070426225662231 3.0930206775665283 2.918785810470581 -1.9305802583694458 -3.762589931488037 1.7670584917068481 2.0775294303894043 -0.1333412230014801 -0.7040189504623413 5.925063133239746 1.5595815181732178 -4.492248058319092 5.788292407989502 -1.6448181867599487 -1.3826613426208496 0.9439306259155273 -4.295708179473877 -0.7913522720336914 2.525773048400879 -0.8766970634460449 -0.37632516026496887 -4.119235515594482 1.415757656097412 -1.0828152894973755 2.8412747383117676 7.365683555603027 -0.8387920260429382 -1.1784523725509644 -9.798527717590332 -7.522343158721924 -3.1890687942504883 0.14903771877288818 -14.186455726623535 -3.4844770431518555 -0.10981740057468414 2.0097498893737793 2.637923002243042 -2.443880081176758 -0.15560561418533325 -7.442644119262695 0.8871600031852722 -3.2833428382873535 10.481466293334961 1.0501935482025146 -0.13127492368221283 1.0468950271606445 -1.7241305112838745 0.5948338508605957 3.732572078704834 -1.4705469608306885 1.312396764755249 9.1924467086792 2.016108989715576 0.15872502326965332 -0.16386288404464722 -0.9463782906532288 -0.06083160638809204 0.620262086391449 1.5820741653442383 -6.984706401824951 0.7470757365226746 -9.993757247924805 0.40504443645477295 -0.7666383981704712 0.6460003852844238 -2.486612558364868 -0.9315589666366577
dasatinib	9.93166446685791 -2.5456788539886475 -9.215201377868652 1.4691495895385742 -0.9088810086250305 4.717484474182129 -0.7468630075454712 1.2453694343566895 -0.48059991002082825 -5.329405784606934 -3.9754035472869873 -6.116253852844238 0.45509934425354004 -2.069115161895752 -0.9623806476593018 -5.010753631591797 -1.2869985103607178 1.0371569395065308 4.174422740936279 6.600698471069336 -3.7794132232666016 -2.9674887657165527 6.3230881690979 1.4489483833312988 -0.6469864845275879 0.9993167519569397 1.9121508598327637 -2.245349884033203 -4.709878921508789 0.04669041559100151 -9.26218318939209 -0.17470109462738037 0.2194974571466446 -3.375706195831299 2.5121140480041504 4.257328033447266 -2.6653666496276855 -1.9148229360580444 0.12911784648895264 -0.8670231103897095 9.020604133605957 -1.1240818500518799 1.650059700012207 1.6352177858352661 -3.762925148010254 6.759504795074463 -2.2561118602752686 0.0469968318939209 1.3327486515045166 -6.256255626678467 -0.6658570766448975 1.6882350444793701 0.2561914324760437 1.1565839052200317 -3.5066866874694824 1.0201977491378784 -0.8623011708259583 5.950817108154297 3.0184528827667236 -8.259033203125 -7.3155364990234375 -3.4855337142944336 -4.2585906982421875 -3.788464069366455 -1.4486817121505737 -12.3622465133667 -5.896708011627197 0.9636262655258179 -0.35748088359832764 2.9737846851348877 -1.3836891651153564 -0.9458805322647095 -3.8908658027648926 -1.5601637363433838 -3.2046895027160645 3.495288372039795 -1.0513757467269897 2.3221092224121094 -0.9718465209007263 -0.3692224621772766 -0.21935784816741943 8.850099563598633 2.1414830684661865 1.7205097675323486 6.608757972717285 -0.3664698004722595 -2.1843626499176025 1.2104082107543945 -0.8356667160987854 0.8858404159545898 1.3805863857269287 -0.8247283697128296 -7.115880489349365 -0.49715250730514526 -9.882898330688477 0.5197740793228149 -0.3774109184741974 -2.5393643379211426 -3.144582748413086 0.6821327209472656
paclitaxel	7.973221302032471 -5.4444684982299805 -4.242819786071777 1.9648842811584473 -1.1919432878494263 2.601749897003174 3.1548075675964355 0.4963410496711731 0.45407456159591675 -5.938610553741455 -5.269726276397705 -4.298264980316162 1.892275094985962 -2.83630633354187 0.9526366591453552 -5.34837532043457 -2.7880492210388184 1.5031672716140747 4.330449104309082 6.700249195098877 -5.322760581970215 -2.5845284461975098 5.230653285980225 -0.40140917897224426 -3.6490230560302734 0.19440531730651855 3.9078121185302734 -1.5151996612548828 -5.392796993255615 2.335986614227295 -6.781892776489258 -1.816936731338501 -0.13341893255710602 -1.4576324224472046 1.2194113731384277 4.985217094421387 -5.592566967010498 -4.130524158477783 0.38123899698257446 -0.2707515358924866 5.020146369934082 -0.622840940952301 4.902925491333008 2.796541213989258 -5.525784492492676 5.834116458892822 -1.2145003080368042 -1.4503562450408936 1.5003652572631836 -5.400946140289307 -0.7455243468284607 2.4714927673339844 -1.032251000404358 1.8217560052871704 -4.273791790008545 1.3903852701187134 -1.0764539241790771 3.656555414199829 7.9692840576171875 -2.274327516555786 -4.222299575805664 -16.627315521240234 -8.348982810974121 -3.4744865894317627 0.007438480854034424 -12.800971031188965 -3.0835766792297363 -0.08538680523633957 2.0630297660827637 2.3636136054992676 -2.256849527359009 -0.5823071002960205 -10.952554702758789 0.9760915637016296 -3.8466782569885254 13.544143676757812 1.0476245880126953 -0.10913003981113434 1.292793869972229 -0.9053208231925964 0.6408138275146484 4.085866451263428 -1.4902043342590332 1.2565315961837769 9.782182693481445 3.412489891052246 0.35875165462493896 -0.269039511680603 -1.3334308862686157 -0.03755784034729004 1.1878083944320679 1.0750213861465454 -7.091304779052734 0.30532559752464294 -11.316965103149414 0.17383742332458496 -1.629256010055542 0.22058475017547607 -3.0384726524353027 -1.0515186786651611
lenalidomide	4.056949138641357 -0.8555589914321899 -5.535025119781494 1.5927479267120361 -0.46192872524261475 -0.05084902048110962 -0.7137208580970764 2.257617950439453 -0.7305643558502197 -3.5720911026000977 -4.239150047302246 -7.706629753112793 -0.2782553434371948 -2.8970162868499756 2.0032131671905518 -5.8252787590026855 -0.17717111110687256 2.703815221786499 3.1955161094665527 6.597698211669922 -3.5589261054992676 -1.255370020866394 5.007047653198242 0.5880991816520691 0.08876004070043564 -0.8913227915763855 3.6638665199279785 -0.17723208665847778 -2.846816062927246 0.3450060784816742 -2.033156394958496 -0.30445700883865356 -1.6600478887557983 -3.0678560733795166 1.1241086721420288 3.097287893295288 -5.4084367752075195 -3.2111494541168213 2.615546703338623 1.16071617603302 6.37368631362915 -0.07066570222377777 6.0285325050354 -1.4721068143844604 -2.5702993869781494 5.652410984039307 -0.3770640194416046 -1.133095383644104 2.4610490798950195 -3.6544976234436035 -0.7636024355888367 0.3045075833797455 0.13349348306655884 -1.7490583658218384 -2.4446287155151367 0.848171055316925 -0.8450330495834351 5.470504283905029 2.4333086013793945 -4.796525001525879 -2.3682780265808105 -1.8021419048309326 -5.571567058563232 -4.384642124176025 -1.6646783351898193 -11.773015022277832 -3.1685791015625 0.920644223690033 -0.6766871809959412 3.1955342292785645 -1.189056634902954 -0.8611345887184143 -1.22688889503479 -0.6368688941001892 -2.635345458984375 3.0138912200927734 -1.0208476781845093 2.674513816833496 -1.0156000852584839 -0.45535045862197876 -1.8293652534484863 3.5582714080810547 2.4922778606414795 2.3322694301605225 5.246635437011719 -0.23547226190567017 -1.9306080341339111 1.3303065299987793 -0.9562250971794128 2.5483481884002686 -0.8464589715003967 -0.35447701811790466 -7.256723403930664 0.8979196548461914 -8.356194496154785 2.1834166049957275 0.47500914335250854 -1.8740838766098022 -3.998964548110962 -0.9913133382797241
dacarbazine	1.656029462814331 -2.9227962493896484 -4.196265697479248 1.474775791168213 -0.2501791715621948 -0.17666053771972656 -0.3193085193634033 0.5756305456161499 -0.8182679414749146 -3.7988016605377197 -4.183993339538574 -3.405825138092041 0.8442104458808899 -0.8238946199417114 2.1043481826782227 -4.670133590698242 -0.5932634472846985 1.5700103044509888 2.721351146697998 6.141447067260742 -2.277428388595581 -1.6234492063522339 3.9751105308532715 0.855026364326477 -0.1116754412651062 -0.9199540615081787 3.3788490295410156 -0.052012115716934204 -2.4750330448150635 0.1640886813402176 -3.2535648345947266 -0.3249662518501282 -1.2915714979171753 -3.7230348587036133 -0.829131543636322 3.171815872192383 -3.793130874633789 -2.269907236099243 1.520237684249878 0.02688974142074585 3.36098575592041 -0.04620976746082306 6.119060039520264 -1.4608147144317627 -2.4587037563323975 4.534474849700928 0.4171214699745178 -0.577765166759491 1.1092250347137451 -3.9758052825927734 -0.7186458110809326 -1.0997838973999023 0.44822603464126587 -1.5992028713226318 -1.484306812286377 -0.007736682891845703 0.9076143503189087 4.775575637817383 2.068100690841675 -1.9133585691452026 -1.7193702459335327 -1.5107406377792358 -2.6175949573516846 -3.468477725982666 0.2600752115249634 -9.844575881958008 -3.9345178604125977 0.7986398935317993 -0.6280294060707092 4.106086730957031 -1.7450597286224365 -1.666854739189148 0.5939075946807861 -0.7579101324081421 -3.195939540863037 0.646794319152832 -0.9318479299545288 4.148107528686523 -0.8831801414489746 -0.15327557921409607 -1.785438060760498 4.272971153259277 2.3282721042633057 0.6983144879341125 5.317373275756836 0.8333889245986938 -1.7268397808074951 0.19112791121006012 0.08940953016281128 3.02109694480896 -1.4522391557693481 1.2495031356811523 -4.641855716705322 0.8398578763008118 -4.909405708312988 0.930014967918396 -1.173923134803772 0.39124202728271484 -3.8741655349731445 -0.5318424701690674
imexon	2.9827663898468018 -1.5493782758712769 -4.537929534912109 1.1841323375701904 -1.5539381504058838 1.9303487539291382 -1.2245019674301147 2.326519012451172 0.16602258384227753 -3.258610725402832 -3.4672200679779053 -5.665858745574951 -1.218807578086853 -0.7956116795539856 -0.5516970753669739 -3.797110080718994 -3.2532992362976074 1.6592674255371094 3.544874429702759 3.2029318809509277 -2.391662836074829 -3.0640361309051514 5.150193214416504 -0.9100654125213623 0.13097140192985535 1.3791887760162354 3.5062665939331055 -1.737585425376892 -1.8248770236968994 -0.11922530829906464 -4.001038074493408 0.7958946228027344 -1.3336257934570312 -3.5023586750030518 1.1019771099090576 2.8183445930480957 -3.195038080215454 -3.356039524078369 0.5502910614013672 -0.10670655965805054 4.258763313293457 -1.2305994033813477 3.6408884525299072 0.25432807207107544 -2.5662293434143066 5.314907073974609 -0.4106162190437317 1.0824384689331055 2.2920427322387695 -4.353851795196533 -0.7643680572509766 0.29990220069885254 0.027853909879922867 -0.7171875834465027 -1.9976136684417725 0.8655055165290833 -0.8084862232208252 4.4440412521362305 1.9989678859710693 -2.631014347076416 -2.1080124378204346 -1.0129914283752441 -3.1108198165893555 -2.9228315353393555 -1.765913724899292 -7.871250629425049 -0.5785440802574158 0.9524885416030884 -0.651553750038147 3.7346396446228027 -1.2644240856170654 -0.9103047847747803 -0.5516766905784607 -0.6918206810951233 -2.2560698986053467 1.040544867515564 -1.0301729440689087 2.9767262935638428 -1.0147459506988525 -0.4196931719779968 -1.9630001783370972 2.6636717319488525 2.464552402496338 2.0797789096832275 4.561409950256348 -0.31388604640960693 -1.9100760221481323 1.234700322151184 -0.927696168422699 3.0376482009887695 -0.8679088950157166 -0.3526155650615692 -3.974578857421875 0.9147095084190369 -4.150304794311523 2.5617120265960693 0.5231382250785828 -1.0289782285690308 -4.769176006317139 -0.9869185090065002
